-0.072124
0.196913
-0.027336
-0.023355
-0.020461
0.161875
-0.105122
0.015058
-0.215273
0.009026
-0.033462
0.122682
-0.007699
-0.094960
-0.006077
0.049237
0.009894
0.069304
-0.012509
0.026665
0.036805
0.083285
-0.047898
-0.045959
-0.180586
-0.038612
0.074347
0.053336
-0.028527
0.014156
-0.023742
0.063077
0.033576
-0.053417
-0.010146
-0.016859
0.069788
0.071075
-0.033367
0.067337
0.106273
0.119205
-0.102338
-0.079850
-0.048874
0.060037
-0.017261
0.044631
-0.059241
0.027851
0.088872
0.074670
-0.049131
-0.024410
-0.127233
-0.035848
0.069363
-0.037667
-0.093061
-0.071809
-0.033057
0.149341
0.086583
-0.013465
-0.152077
0.135874
-0.115555
0.107719
-0.128799
-0.081880
-0.066835
0.012897
0.035517
-0.021979
0.004660
0.089219
-0.003079
0.061999
-0.038925
-0.028458
-0.019776
0.191350
0.027673
-0.051230
-0.149320
0.205268
-0.110674
-0.002215
-0.108769
-0.049044
-0.007728
0.031635
-0.088168
-0.056777
-0.107969
0.048277
-0.037701
-0.019231
-0.006949
-0.075185
-0.066539
-0.000587
-0.140915
-0.002208
-0.054523
-0.049967
0.128955
0.015174
-0.107878
-0.017673
0.113331
-0.023472
0.000608
0.024952
-0.170180
0.018113
0.063913
0.055100
-0.005233
0.002554
-0.042864
0.098022
-0.115910
0.025836
-0.092364
-0.001946
0.073120
0.020567
-0.099212
-0.005888
0.089836
0.086711
-0.135179
0.048469
-0.178793
0.036695
0.132457
-0.024012
-0.080699
-0.045430
-0.005640
0.119574
-0.017150
0.062163
-0.044817
0.147420
-0.053786
0.002831
-0.220195
0.006703
0.020191
0.095072
-0.060098
-0.059044
0.013380
0.110528
0.009879
0.075314
-0.040963
-0.039744
-0.132629
0.222320
0.031628
0.014628
-0.142580
0.128921
0.082732
0.040768
-0.144086
0.003484
-0.071179
0.017380
-0.063295
0.036623
-0.154231
0.006886
0.250045
0.003512
-0.020922
-0.056242
-0.105291
-0.188322
-0.033992
0.128595
-0.158177
-0.091559
0.153996
-0.189426
-0.164882
-0.134170
-0.143992
-0.046628
-0.070601
-0.013961
-0.145740
-0.047196
0.208028
-0.015406
-0.067055
-0.023012
-0.150390
-0.049311
-0.050377
0.026478
-0.113536
-0.158419
0.147062
-0.114408
-0.109503
-0.033732
-0.047700
-0.109290
-0.033121
-0.035239
-0.195715
-0.108819
0.108178
-0.085103
-0.149993
-0.104090
0.018129
0.204061
-0.029942
-0.019341
-0.100787
0.142449
0.002490
0.033453
-0.141133
0.015347
-0.018323
0.120461
-0.018127
0.008110
-0.095903
0.058993
0.025596
0.050611
-0.104005
-0.015338
-0.001369
0.133677
0.014747
0.046700
-0.238204
0.123717
0.139509
-0.070969
-0.198685
-0.033773
-0.038712
-0.199539
0.014414
0.094515
-0.184019
-0.128005
0.087343
-0.157333
-0.160743
-0.023699
-0.143828
-0.121706
0.204393
0.064681
-0.216632
-0.113264
0.131033
-0.257819
-0.113756
-0.186450
0.006703
-0.191091
-0.036328
0.158803
-0.202473
-0.169851
0.149642
-0.173820
-0.305639
-0.039100
-0.014643
-0.108981
0.154251
0.026295
-0.344159
-0.070376
0.057858
-0.189422
-0.065431
-0.111985
-0.096547
-0.181972
0.158842
-0.067385
-0.254905
-0.152449
0.090091
-0.258376
-0.064769
-0.090826
0.026469
0.200071
0.081813
0.050688
-0.116326
0.192865
-0.077869
0.106445
-0.142958
0.016205
-0.087875
-0.004643
-0.019024
0.081833
-0.184863
0.037537
0.170343
0.020164
-0.102298
0.006135
-0.015733
-0.072886
0.131283
0.048939
-0.351419
0.112265
0.111903
-0.090646
-0.227865
-0.057554
-0.136165
-0.104526
0.105657
0.027804
-0.344204
-0.135181
0.177573
-0.337702
-0.139677
-0.275511
-0.123607
-0.258302
0.136188
0.104071
-0.260810
-0.150330
0.179801
-0.286627
-0.089627
-0.369726
-0.234700
-0.048053
0.252927
-0.088936
-0.340806
-0.025753
0.157117
-0.337769
-0.142591
-0.165171
-0.192850
-0.269160
0.117508
0.102342
-0.319545
-0.199914
0.149068
-0.366889
-0.203645
-0.279964
-0.156965
-0.270906
0.165843
0.059746
-0.306231
-0.146434
0.077881
-0.371717
-0.045562
-0.223646
-0.044579
0.170261
0.005036
0.071991
-0.116628
0.165913
0.026619
0.011441
-0.217293
-0.059941
-0.046203
-0.084995
0.171185
0.033516
-0.245969
0.055714
0.094491
-0.037581
-0.097159
-0.077472
-0.021970
-0.043815
0.190908
0.038238
-0.328601
0.065364
0.089305
-0.097227
-0.220260
-0.149360
-0.091043
-0.175183
0.074286
0.015850
-0.282727
-0.135298
0.088491
-0.382962
-0.086855
-0.403372
-0.140055
-0.018705
0.090133
0.069992
-0.303266
-0.086461
0.129136
-0.331158
-0.116558
-0.386081
-0.069108
-0.254185
0.214192
0.073056
-0.252636
-0.100769
0.084722
-0.314781
-0.162928
-0.367905
-0.182701
-0.010476
-0.011192
0.052645
-0.273523
-0.158818
0.143013
-0.186807
-0.131735
-0.376489
-0.128965
-0.010242
0.199001
0.035054
-0.320226
-0.129945
0.044926
-0.278253
-0.075493
-0.419251
-0.066779
0.155044
-0.045332
-0.038036
-0.082789
0.073785
0.064350
-0.008532
-0.109701
-0.052519
-0.057187
-0.117199
0.148184
0.061639
-0.306582
-0.048679
0.028757
-0.056118
-0.093351
-0.143345
-0.158952
-0.047472
0.040502
0.064807
-0.239797
-0.006480
0.098180
-0.081438
-0.114803
-0.212704
-0.177923
0.077470
0.027470
0.022277
-0.210549
-0.103634
0.061126
-0.260017
-0.031762
-0.495750
-0.177280
0.019081
-0.015848
0.004595
-0.154373
-0.108220
0.180251
-0.157559
-0.031134
-0.372599
-0.089314
-0.098947
0.058601
0.056423
-0.356075
-0.107093
0.179208
-0.332939
-0.043643
-0.504128
-0.219629
0.062433
-0.032920
0.038143
-0.171340
-0.084092
0.080350
-0.198147
-0.094387
-0.426303
-0.260816
-0.005341
0.048032
0.092390
-0.177488
-0.087159
-0.009094
-0.246132
-0.032491
-0.436545
0.014219
0.098593
-0.055805
0.060165
-0.096369
0.166062
0.075751
0.026181
-0.167078
-0.034892
-0.159009
-0.107091
0.103489
0.050338
-0.180076
-0.064218
0.127839
-0.044816
-0.031363
-0.228002
-0.067242
-0.054473
0.006871
0.095620
-0.120789
0.027403
0.026747
-0.071193
-0.044314
-0.265202
-0.126410
0.060845
-0.022957
0.090194
-0.134791
0.012219
0.105993
-0.255733
-0.024254
-0.334788
-0.058825
0.079243
-0.048298
0.049817
-0.139513
-0.039938
0.019635
-0.092532
0.041542
-0.286703
-0.158756
-0.014319
0.039116
0.038383
-0.142470
-0.173780
-0.018625
-0.168076
-0.061237
-0.459854
-0.060722
0.067982
0.034907
-0.067447
-0.248297
0.007081
-0.029953
-0.118611
-0.054402
-0.249507
-0.123966
0.041965
0.083642
-0.012050
-0.122543
-0.034946
0.059069
-0.153568
-0.068522
-0.302974
0.015137
0.152124
-0.097696
-0.061114
-0.061773
0.200343
0.095478
0.072729
-0.169168
-0.039253
-0.071379
0.031047
0.082885
0.014545
-0.122447
-0.075147
0.003990
-0.064273
0.003599
-0.167703
-0.010488
-0.144986
0.064251
0.045545
-0.120848
0.074968
-0.029287
-0.072316
-0.041912
-0.213598
-0.016156
-0.096311
-0.056380
-0.003293
-0.198686
0.007445
0.099228
-0.142875
-0.069185
-0.239686
-0.118661
-0.054048
-0.203364
-0.044614
-0.139583
0.066543
0.156092
-0.123517
-0.012294
-0.185176
0.035204
-0.054916
0.066047
0.010617
-0.134888
-0.028351
-0.008010
-0.092511
-0.065103
-0.303461
-0.242349
-0.001687
-0.243083
-0.067102
-0.187276
0.049672
0.148430
-0.146739
-0.031537
-0.268987
-0.113316
-0.090368
0.034996
-0.017727
-0.261542
0.005114
0.037470
-0.117736
-0.070970
-0.195617
-0.080936
0.150032
-0.126786
0.011141
-0.072066
0.176873
0.177861
0.112788
-0.189952
-0.096614
-0.048413
-0.130445
0.083191
-0.008216
-0.197721
0.002490
-0.094110
-0.001152
-0.122282
-0.222759
-0.124630
-0.103587
-0.147435
0.054160
-0.159331
0.081681
0.104566
-0.057177
-0.128579
-0.091937
-0.172188
-0.175078
-0.096193
0.035743
-0.187904
0.066194
0.183775
-0.033793
-0.135497
-0.221987
-0.105505
-0.092216
-0.289780
-0.134854
0.046353
-0.025178
0.289936
-0.136297
-0.155913
-0.299498
-0.184372
-0.137136
-0.064222
-0.003258
-0.192983
0.137920
0.107411
-0.161446
-0.141311
-0.129703
-0.120670
-0.096048
-0.277399
-0.154577
-0.089756
-0.113821
0.303717
-0.045596
-0.065573
-0.249551
-0.200224
-0.078221
-0.156822
0.031893
-0.291376
0.026367
0.129830
-0.059053
-0.080706
-0.226348
-0.065280
0.090801
0.005539
0.007253
-0.059132
0.097185
0.034838
0.120673
-0.225326
0.005632
-0.088064
-0.091444
-0.139544
-0.003451
-0.105736
0.050380
0.106031
-0.026299
-0.119181
-0.165348
-0.090839
-0.156804
-0.028519
-0.031773
-0.071345
0.069661
0.028062
-0.030477
-0.189148
-0.164599
-0.131197
-0.138480
-0.152303
0.059749
-0.074525
-0.054955
0.239067
-0.067587
-0.126739
-0.247947
-0.030455
-0.121487
-0.201265
-0.348802
0.002500
-0.082822
0.139041
0.004264
-0.009540
-0.110775
-0.101794
-0.165675
-0.105453
0.067159
0.016364
-0.029086
0.100902
-0.075731
-0.105920
-0.246144
-0.138361
-0.091177
-0.109723
-0.182642
-0.169574
-0.078790
0.271314
-0.006710
0.033995
0.007770
-0.100105
-0.137605
-0.127752
-0.073916
-0.126440
-0.104160
0.156492
-0.062718
-0.105275
-0.142835
-0.078345
0.125407
-0.008777
-0.019746
-0.131296
0.147239
-0.078559
0.114494
-0.133984
-0.096294
-0.190552
-0.034105
-0.049489
0.041181
-0.030220
-0.015725
0.203204
-0.022828
-0.061541
-0.073396
-0.009423
0.068477
0.043220
-0.046728
-0.051001
-0.015258
0.114380
0.068966
-0.072870
-0.005641
-0.133559
-0.226467
0.018709
-0.365927
-0.059943
-0.038982
0.171161
-0.047594
0.032111
-0.127886
0.099297
-0.111557
-0.005904
-0.161298
-0.134344
-0.203060
0.112766
0.057307
-0.102524
0.026886
-0.056764
-0.144194
-0.109139
-0.455861
-0.210094
-0.170514
0.227003
-0.021348
0.013238
-0.138818
0.015365
0.006437
0.003518
-0.080732
-0.103277
-0.082315
0.056569
0.068304
-0.088498
0.011519
-0.036793
-0.146715
-0.075987
-0.428933
-0.189468
-0.096876
0.205390
0.036812
0.023862
-0.020380
-0.019722
0.114809
0.001296
0.041504
-0.094751
0.091086
-0.016485
0.127984
-0.206816
-0.036332
-0.008712
-0.052011
-0.032016
-0.160945
-0.012829
-0.003898
0.094332
-0.017703
0.016646
0.009440
-0.000895
0.192706
-0.046620
-0.020827
-0.066483
0.141945
0.069482
0.090740
-0.188923
0.011814
0.027765
-0.037260
-0.019799
-0.167004
-0.118411
-0.115626
0.109960
0.060195
0.003914
-0.002303
-0.077608
-0.011856
-0.079526
0.008587
-0.117104
-0.058433
0.092418
-0.032147
-0.168216
-0.057946
0.084773
-0.070402
0.043712
-0.225348
-0.210401
-0.178942
0.032698
-0.013799
0.059283
-0.048344
0.040769
-0.016285
-0.045168
0.030244
0.029903
-0.050837
0.034316
0.057083
-0.081175
0.083058
0.054545
-0.073164
-0.036349
-0.189673
-0.142269
-0.166302
0.066352
-0.032031
-0.021651
-0.033032
-0.018040
0.179750
-0.012956
0.006954
-0.068028
0.111683
-0.082190
0.018066
-0.235153
-0.047296
0.000922
0.097186
-0.006524
-0.057903
-0.094085
0.028626
0.035469
-0.033482
-0.071502
0.008311
0.040868
0.108918
-0.022372
-0.022416
-0.142230
0.156418
-0.125014
0.051692
-0.154981
-0.064960
0.115645
0.095130
-0.017397
-0.034456
-0.059953
-0.036035
0.010523
0.025224
-0.011510
0.011363
0.017327
0.108431
-0.046885
0.079434
-0.175620
-0.018882
-0.072046
0.041164
-0.074008
-0.074408
-0.030419
-0.005764
-0.058353
-0.001514
-0.021622
-0.049733
0.034454
0.001424
-0.076705
0.047168
0.080910
0.186770
-0.101170
0.026761
-0.142416
0.057802
-0.091238
0.025477
-0.147367
-0.033409
0.100481
0.134025
-0.076889
0.112607
-0.201012
0.017832
0.007554
0.038433
-0.071101
-0.092189
0.018272
0.096310
0.075141
-0.010372
-0.062981
0.191356
-0.095914
0.017322
-0.230145
-0.025387
-0.061239
0.082692
-0.029512
0.042895
0.030758
0.005851
0.024374
0.005618
-0.098093
0.057268
-0.146167
0.172961
-0.049223
0.064517
-0.070038
0.081306
0.008677
-0.051228
-0.244103
-0.111606
-0.077013
0.112360
-0.050623
0.088419
-0.053812
-0.086983
0.111754
-0.160998
-0.183249
-0.051467
-0.224412
0.218115
-0.076130
0.092740
-0.072914
-0.176243
0.073842
0.024368
-0.088057
-0.052265
0.042815
0.038910
-0.051541
0.014181
-0.111431
-0.062849
0.047546
-0.100352
-0.069972
-0.108559
-0.168564
0.113658
-0.056456
0.067792
-0.149792
-0.109457
0.081137
0.036203
-0.195417
-0.048561
-0.227614
0.119657
-0.037484
0.157294
-0.133952
-0.137547
0.031516
-0.020526
-0.123821
-0.147129
-0.107473
0.114699
-0.010811
0.006737
-0.154314
0.082384
-0.059477
0.068556
-0.230270
-0.100818
0.015893
0.155721
0.008577
0.018739
-0.020283
-0.044780
-0.002833
-0.003189
-0.136769
0.003777
-0.091293
0.235672
0.051887
0.096946
-0.061172
-0.067627
-0.104121
0.075061
-0.164370
-0.063359
-0.114206
0.070823
0.049539
0.138031
-0.092643
-0.178042
0.043524
-0.064520
-0.133195
-0.230407
0.013629
-0.007220
0.047916
0.062363
-0.089766
-0.159423
-0.002871
-0.013714
0.073909
-0.345301
-0.235414
0.138874
-0.052851
-0.028816
-0.125064
-0.075127
0.165124
0.007851
-0.112035
-0.211919
-0.098600
-0.025541
0.027921
0.123346
-0.025737
-0.153286
0.067644
-0.121426
0.000633
-0.187067
-0.085128
0.067979
0.032258
0.162524
-0.082656
-0.131461
0.002833
-0.108490
0.047034
-0.246611
-0.095056
0.087993
0.059551
-0.010972
-0.079071
0.076792
-0.109019
-0.015106
-0.151006
-0.044476
-0.183469
0.133908
-0.046698
0.019400
-0.144312
-0.036523
0.090044
0.055716
-0.148342
-0.016043
-0.077068
0.040770
0.014274
0.109699
-0.088437
-0.154884
-0.021286
0.139263
-0.032657
-0.126126
-0.008962
-0.079104
0.011303
0.136055
-0.054030
-0.181683
0.043626
-0.183727
0.105270
-0.272324
-0.049672
-0.065962
-0.026695
0.036612
-0.107880
0.043199
0.039068
0.008923
0.052318
-0.166549
-0.037970
0.079073
-0.053989
0.128807
0.041051
-0.148602
-0.006744
-0.039438
-0.115690
-0.305652
-0.063229
-0.005093
0.111845
0.103673
-0.119241
-0.133159
0.089869
-0.148168
0.054560
-0.201029
-0.056129
-0.040640
0.009138
0.026807
-0.076431
-0.137054
0.035536
-0.108718
0.004124
-0.261866
-0.071068
0.167225
0.061417
0.001182
-0.090197
0.131592
-0.006542
0.015618
-0.123330
-0.052075
-0.001005
0.001629
-0.067579
0.005376
-0.059197
-0.120272
-0.005251
0.074377
-0.113518
-0.111775
-0.023758
-0.104746
0.077400
-0.020284
-0.103289
-0.040774
-0.050824
0.032051
-0.026278
-0.032532
-0.012951
-0.008990
0.012521
0.106211
-0.116318
-0.101868
-0.015218
-0.170603
0.071716
-0.107066
-0.045260
-0.051694
-0.015426
-0.075583
-0.116860
-0.020550
0.054600
-0.193339
-0.049463
0.092603
-0.031868
0.189829
-0.044084
-0.029360
0.091962
-0.128117
0.157642
0.028908
-0.228716
-0.253476
-0.031924
-0.059262
0.123396
0.063754
-0.280430
-0.093258
0.076700
-0.238686
0.002366
-0.029972
-0.046539
-0.130058
0.083877
0.119240
-0.177794
-0.040627
-0.035403
-0.120040
0.071065
-0.064609
-0.072097
0.140419
-0.089457
-0.046763
-0.038002
0.178491
-0.012883
-0.018507
-0.126314
0.089087
-0.111033
0.103080
0.078980
-0.047764
-0.058653
-0.014595
0.058131
0.094041
-0.056847
-0.125807
-0.014397
-0.084149
0.123981
0.071023
-0.174551
-0.060088
-0.177913
-0.013479
0.092403
0.091465
-0.046804
-0.125583
0.061301
0.105427
-0.093737
-0.010544
0.012875
-0.097765
0.035112
0.038096
-0.092668
0.106596
-0.008202
-0.071071
0.025034
-0.103130
0.071197
-0.053361
0.141234
0.065905
-0.044041
0.110912
0.027845
0.022790
-0.092871
-0.111527
0.054071
-0.035828
-0.026485
-0.006972
-0.030386
-0.021817
0.103207
0.030189
-0.061463
-0.139704
0.051592
-0.207910
0.060285
-0.049691
-0.128556
-0.077313
0.101135
0.051073
-0.231346
-0.090522
-0.055592
-0.101408
0.148312
0.097756
0.076136
0.231790
-0.176326
-0.217999
0.086863
0.141267
0.152547
0.020715
-0.082312
-0.083916
-0.108712
0.050751
0.069674
0.055138
-0.103100
-0.070120
-0.109729
-0.077326
0.026624
0.102421
0.028482
-0.089490
0.128202
0.052068
-0.076267
0.040232
-0.110611
0.000799
0.085768
0.014233
-0.054219
0.052100
0.106601
-0.007893
-0.122078
0.004800
-0.017319
-0.039468
0.036547
0.006454
0.039034
0.123888
0.034278
-0.079906
0.119010
-0.067963
0.079441
-0.186943
0.007936
-0.150105
0.008126
0.073215
-0.044414
0.172668
-0.021553
-0.186583
-0.071268
-0.036914
0.009003
0.021759
-0.079556
0.011931
-0.011600
0.018271
0.025766
-0.056021
-0.024422
-0.329390
0.005461
-0.120054
-0.049932
0.002293
0.079645
0.087478
-0.102374
-0.032687
0.016769
0.013908
0.080861
0.076969
-0.073076
0.334286
-0.252304
-0.226523
0.156055
0.042094
0.230751
0.000939
-0.099324
-0.243637
-0.020104
-0.047863
0.103465
0.096070
-0.014035
-0.083475
-0.035363
-0.035077
0.012951
-0.017975
0.056008
-0.082798
0.005331
0.001060
-0.104256
0.088452
0.016427
0.022811
0.041651
-0.020694
-0.063406
-0.006280
-0.035411
-0.065386
-0.069477
0.106221
0.030470
-0.068851
0.041701
0.008144
0.044261
0.124348
-0.002016
-0.052779
0.026656
-0.025220
0.025079
-0.308353
0.154823
-0.312138
0.025743
0.086031
-0.056220
0.002353
0.001416
-0.054635
-0.062032
0.040425
0.013474
-0.150278
-0.068195
0.049580
-0.006361
-0.043511
-0.034214
-0.013040
-0.028373
-0.445404
0.002167
-0.248788
-0.081892
0.002395
0.013789
0.047934
-0.162676
0.093984
-0.031881
-0.151620
0.034583
0.047424
0.072175
0.242175
-0.406461
-0.325502
0.246728
0.094888
0.287336
0.026495
-0.058458
-0.236334
0.030446
0.087798
0.098671
0.099177
-0.127643
-0.001974
0.034203
-0.083333
-0.027873
-0.081530
0.027715
-0.042821
0.034319
-0.005796
-0.126714
0.020162
0.063256
-0.150531
-0.003261
-0.078054
-0.085588
0.014416
0.048866
-0.098741
-0.035829
0.161500
0.054365
-0.138770
0.055404
-0.118499
0.016473
0.233414
-0.280022
-0.198679
0.183177
-0.023472
0.121007
-0.337463
0.104652
-0.119867
-0.062655
0.041533
0.002064
0.006443
-0.059870
0.000796
-0.012011
-0.094329
0.090708
-0.002967
-0.045842
0.019083
-0.060435
0.013807
0.122530
0.119695
0.074409
-0.414612
-0.014975
-0.125706
0.003203
-0.061329
0.050686
-0.005543
-0.154739
0.116421
0.038324
-0.166333
0.000493
-0.003975
-0.088784
0.445492
-0.381113
-0.221816
0.172944
0.178020
0.236700
0.046767
-0.042306
-0.142768
-0.085978
0.006684
0.080878
0.016298
-0.181299
0.010396
0.015764
-0.128469
0.042660
-0.090740
0.030203
-0.039174
-0.027209
0.005806
-0.020111
0.055969
0.051238
-0.236702
0.109468
-0.024947
-0.047396
0.101684
-0.097994
-0.101280
0.047870
0.041086
0.145542
-0.249801
0.060354
-0.110409
-0.109834
0.157418
-0.343246
-0.209587
0.180407
-0.012486
0.127558
-0.385814
0.094364
-0.234884
-0.021231
-0.009654
0.004331
0.046266
-0.108928
0.005583
0.030419
-0.234560
-0.029586
0.007793
-0.083378
0.067605
-0.204277
-0.049082
0.150569
0.024220
0.009747
-0.302506
0.041546
-0.238346
-0.016425
0.038974
-0.101858
-0.092725
-0.102232
0.081195
0.158727
-0.196799
0.002089
-0.030837
-0.038074
0.306295
-0.372358
-0.230298
0.074681
0.214426
0.185375
0.086614
-0.152251
-0.003164
-0.035049
0.022225
-0.030663
0.046668
-0.127788
0.065104
0.066322
-0.243659
-0.059338
0.044222
-0.102826
0.077356
0.008406
-0.146710
-0.006815
0.094762
0.072849
-0.224633
0.011531
-0.020651
-0.089122
0.085977
-0.083841
-0.148957
0.061183
-0.010978
0.178617
-0.340774
-0.027517
-0.075487
-0.066847
0.196102
-0.225722
-0.331296
0.103745
0.030928
0.027220
-0.276378
-0.088455
-0.325177
-0.083528
0.075599
0.006746
-0.027600
-0.016480
-0.065507
0.063389
-0.243771
0.065463
-0.034974
-0.001717
-0.083942
-0.261836
-0.191169
0.136933
-0.006797
0.125205
-0.244227
-0.058229
-0.448816
-0.076759
-0.000888
-0.086981
-0.098368
0.030945
0.013933
0.107689
-0.265186
0.008650
-0.185336
-0.116461
0.174375
-0.145454
-0.132970
-0.036271
0.204348
0.044469
-0.002092
-0.113838
-0.059756
-0.006948
0.109124
-0.073753
-0.080897
0.018859
0.042602
0.079744
-0.282333
0.084221
-0.064378
-0.096800
0.031556
-0.107226
-0.075330
0.081422
0.122415
0.015586
-0.165975
-0.055546
-0.274596
-0.095080
-0.086027
-0.169677
-0.112688
0.134239
0.028440
0.068127
-0.322242
0.026923
-0.414201
-0.171685
-0.042282
-0.069221
-0.268618
0.114917
0.053528
0.153097
-0.262892
0.010532
-0.325170
0.010002
0.026148
-0.104520
0.029797
0.055548
-0.024549
0.090145
-0.384928
-0.099408
-0.407489
-0.136519
-0.179490
-0.117969
-0.382779
0.102378
0.060491
0.067143
-0.131871
0.133635
-0.270972
-0.109944
-0.027992
-0.112348
-0.159869
0.127855
0.044539
0.074064
-0.314434
0.032979
-0.453247
-0.099640
0.154276
-0.037659
-0.042836
0.014047
0.143139
-0.095242
-0.009700
-0.080054
-0.110050
-0.046545
-0.025742
-0.133425
-0.118727
0.138397
-0.027685
0.133571
-0.259995
0.001804
-0.207769
-0.118311
-0.048186
-0.072860
-0.099230
-0.014046
0.086039
-0.012381
0.024965
-0.061484
-0.122145
-0.144302
-0.088667
-0.135797
-0.200858
0.030765
0.078305
0.036982
-0.188385
0.120946
-0.265545
-0.108901
-0.118600
-0.138661
-0.030143
-0.225477
0.029865
0.103402
0.008099
0.089000
-0.052329
-0.119598
-0.162863
-0.096821
-0.384724
0.053003
0.002724
-0.014877
-0.310208
0.115802
-0.253915
-0.135946
-0.049180
-0.050375
-0.056963
-0.150337
0.088831
-0.022019
-0.051833
-0.007177
-0.043958
-0.102212
-0.139208
-0.066884
-0.252892
0.016899
0.069291
-0.025218
-0.196762
0.003636
-0.329942
-0.115907
0.163366
0.004132
-0.009549
-0.051742
0.183354
-0.026719
0.102555
-0.160088
0.030263
-0.054406
-0.049587
-0.097496
-0.043007
-0.020891
0.124185
-0.065885
0.018880
0.062380
-0.088578
-0.097016
0.145034
-0.025754
0.043882
-0.150385
0.123202
-0.099853
0.174864
-0.161724
-0.040895
0.017025
0.009309
-0.086971
0.016262
-0.093942
0.049025
-0.034529
0.057791
-0.122188
-0.167255
0.019498
-0.126456
0.047354
0.115821
-0.024259
-0.130925
-0.169363
0.123836
-0.145004
-0.179514
0.032326
-0.106991
0.010654
0.050126
-0.047660
0.005444
-0.048277
0.005820
-0.057148
-0.121654
-0.129692
-0.059081
-0.042892
0.048105
-0.053373
-0.082847
-0.143950
0.055688
-0.127388
-0.141611
-0.174281
-0.016264
-0.037025
0.057557
-0.080654
-0.060537
-0.090512
0.150418
-0.207697
-0.265052
-0.066955
0.112529
0.071549
-0.009429
-0.056918
0.065068
-0.061047
0.028408
-0.196730
-0.077307
-0.007660
0.092442
0.032311
0.077420
-0.025691
0.069701
-0.043897
0.110210
-0.106997
-0.048428
-0.065481
0.149940
0.049239
0.141123
-0.103057
-0.125351
-0.108913
0.018810
-0.207521
-0.202045
-0.265247
0.031992
0.102445
0.065673
-0.012136
-0.170997
0.085733
-0.051218
-0.086454
-0.332535
-0.149434
0.046896
0.041797
0.123373
-0.060519
-0.137305
0.059911
-0.042547
-0.058951
-0.188746
-0.092227
-0.009011
-0.196153
0.020723
-0.083345
-0.015275
-0.015306
0.163775
-0.183529
-0.204385
-0.135351
0.133508
-0.043419
0.078943
-0.006708
-0.040318
0.046546
0.030278
-0.047435
-0.226450
-0.114171
0.027001
0.060901
0.142584
0.030059
-0.185517
-0.062625
0.045312
-0.016190
-0.318389
-0.001562
0.140025
0.016627
0.042050
-0.092212
0.228692
-0.057361
0.003172
-0.186760
-0.030422
-0.081700
0.042929
-0.050787
0.118987
0.002757
-0.056095
0.002449
0.113992
-0.094321
-0.055162
0.064559
0.038458
0.013056
0.083434
0.058592
-0.130116
-0.115419
0.086029
-0.072918
-0.075519
-0.017552
-0.086925
0.028263
0.066007
-0.020050
-0.134699
-0.036739
0.009525
-0.010510
-0.139757
0.004844
-0.080739
-0.018037
-0.007152
-0.058784
-0.040332
-0.016419
0.075526
-0.047691
0.003528
-0.204235
0.091797
0.000647
0.021708
0.032308
-0.073138
0.121645
0.129168
-0.285153
-0.446284
-0.041932
0.018141
0.052923
0.005176
-0.023270
-0.016178
-0.067131
0.044310
0.046529
-0.119284
-0.011779
-0.090854
-0.002537
0.024656
0.010148
-0.053479
-0.063831
0.028532
-0.073460
0.023123
-0.041338
0.033037
0.013618
0.048889
-0.049778
0.075650
0.085328
0.004808
-0.146908
0.032531
-0.128097
0.153421
-0.032907
0.028739
0.021896
-0.085491
-0.012530
0.052327
-0.140772
-0.222972
-0.127240
-0.221498
-0.003992
0.066861
-0.099289
-0.037867
-0.234570
0.035853
0.040612
0.067439
-0.073747
-0.132011
-0.007779
0.015982
-0.059680
-0.097208
-0.027948
0.060500
0.083970
0.020245
-0.077518
-0.059328
0.012181
0.026881
0.008675
-0.049932
0.102531
-0.014084
0.045828
0.014802
-0.120192
0.176433
-0.183315
0.073330
0.186461
0.010980
0.022361
0.142033
-0.014297
-0.517577
-0.117654
-0.082544
-0.030619
-0.015380
0.025784
0.015610
-0.004236
0.051645
0.009919
-0.038594
-0.096090
-0.131244
0.095198
0.090371
-0.045686
-0.069116
-0.133823
0.042769
0.062952
0.094432
0.032238
0.089171
-0.085548
-0.023033
0.021505
0.041730
0.064189
0.006246
-0.005757
-0.082940
-0.147190
0.060530
-0.081882
0.073150
0.146136
0.006825
0.006521
0.071679
-0.119916
-0.123897
-0.002793
-0.245296
0.006822
0.138820
-0.133874
-0.117040
-0.212094
0.136329
0.067781
0.079904
-0.104804
-0.144676
0.019476
0.044071
-0.134098
-0.071863
-0.037527
0.047575
0.026824
0.136443
-0.034091
-0.026791
0.037151
0.002742
0.066976
-0.007950
-0.003943
0.093110
0.008685
-0.021574
-0.145342
0.009205
-0.109047
0.080501
0.409444
-0.066872
0.068615
0.183505
-0.187122
-0.467072
-0.022915
-0.094754
0.019690
0.030245
-0.080828
-0.029917
-0.094723
0.069965
-0.046934
0.047945
-0.061573
-0.101867
0.073082
0.138612
-0.224346
-0.017753
-0.060826
-0.021320
-0.052278
0.147888
-0.020399
0.072118
-0.136410
-0.060473
0.167037
0.063115
0.243041
-0.047804
-0.041489
-0.074022
-0.101595
0.074731
-0.074447
0.017949
0.162053
-0.023699
-0.011186
0.177329
-0.095578
-0.225415
0.018531
-0.291270
0.020151
0.145351
-0.271282
-0.114561
-0.207084
0.157902
0.042195
0.101484
-0.034364
-0.123554
0.081742
0.077513
-0.177905
-0.075065
-0.114929
0.015682
0.074805
0.068288
-0.016035
0.016387
-0.007513
0.017753
0.116844
-0.079514
-0.030806
-0.042139
0.048094
-0.052389
-0.047425
0.215003
-0.026540
0.121788
0.474740
-0.028532
0.031072
0.010604
-0.215997
-0.406198
-0.047993
-0.099268
0.030872
0.079915
-0.095525
-0.016039
-0.089854
0.071128
-0.034296
0.004644
0.018135
-0.064632
-0.016462
0.047707
-0.187654
-0.064680
-0.020542
-0.023586
-0.017884
0.116307
-0.003952
0.175295
-0.149131
-0.150194
0.279908
0.077986
0.337772
-0.129156
-0.064899
-0.197261
-0.083875
-0.035663
0.013026
0.166262
0.145147
-0.028629
-0.069333
0.043670
-0.089796
-0.117495
-0.042192
-0.336310
0.022033
0.048708
-0.358659
-0.019900
-0.120598
0.036595
0.110350
0.212579
0.001532
-0.077928
-0.005142
0.108527
-0.228002
-0.027536
-0.043065
-0.046556
0.080397
0.190249
-0.074858
-0.075258
0.008275
0.076159
0.078741
-0.066255
0.039633
-0.235531
0.001902
-0.038927
0.009421
0.126680
-0.060236
0.019180
0.311801
-0.172828
-0.142729
0.049771
-0.115133
-0.072455
-0.043635
-0.084572
0.003346
0.022030
-0.073609
0.056560
-0.052807
-0.068244
0.017385
-0.061894
0.015345
-0.077050
0.012047
0.093333
-0.263264
0.077398
0.034860
-0.072160
-0.006769
0.157313
-0.080564
0.230218
-0.410057
-0.404711
0.597594
-0.096154
0.404553
-0.273605
0.059935
-0.275601
-0.053466
-0.067867
0.068568
0.127498
-0.008693
-0.037926
-0.231886
0.077265
-0.067637
0.063022
0.007963
-0.429752
0.035025
-0.039053
-0.233188
0.071601
0.059711
0.087928
0.088122
0.277528
-0.012686
-0.167362
-0.000071
-0.032631
-0.161788
0.126636
-0.073347
-0.060253
0.091367
0.133259
-0.024313
-0.019790
0.076472
0.035111
0.332697
-0.162262
-0.079771
-0.242428
0.119994
0.008318
-0.005880
0.069657
-0.082147
0.025482
0.110912
-0.151420
-0.097951
-0.042450
0.053139
-0.003238
0.007733
-0.077938
-0.011343
-0.010441
-0.063182
0.004782
-0.041272
0.001437
0.016332
-0.057774
-0.067983
-0.043066
0.035522
0.029299
-0.178994
0.143376
0.009596
0.009258
0.100093
0.151136
-0.098404
0.512782
-0.746004
-0.425931
0.903054
-0.081960
0.310012
-0.182657
-0.055281
-0.447149
0.011136
0.003495
0.077074
0.130075
-0.065995
0.044717
-0.164993
-0.057882
-0.045053
0.004548
0.028145
-0.235674
-0.136889
-0.130122
-0.200053
0.234768
0.001747
0.134787
0.047816
0.167886
-0.061978
-0.132235
-0.019738
-0.029033
-0.060643
0.148011
0.002263
-0.060211
0.047728
0.103571
0.081836
0.076889
-0.011378
-0.030466
0.331731
-0.234646
-0.043294
-0.152819
0.053879
-0.151897
0.045660
-0.069054
-0.067724
0.007044
0.065769
-0.094456
-0.101622
-0.085442
0.057338
0.012365
0.058694
-0.069459
0.074131
-0.025875
0.028151
0.017650
0.024540
-0.209354
0.006815
0.011364
-0.033017
-0.011075
-0.000680
-0.007906
-0.223320
0.148100
0.039169
-0.067821
0.028666
0.071639
-0.297814
0.391544
-0.624717
-0.339821
0.713036
0.225158
0.062533
-0.007015
-0.123285
-0.417127
0.040192
-0.013419
-0.058251
0.000051
-0.052234
0.046036
-0.071225
0.035108
0.053347
0.058136
-0.111245
-0.096797
-0.231766
-0.177525
-0.101187
0.209049
0.049053
0.061347
0.162596
0.062181
0.054288
0.089002
-0.048046
-0.045829
-0.054982
0.067396
-0.028373
-0.073933
0.018817
-0.068383
0.048162
0.126635
0.003490
0.045319
0.298757
-0.275899
-0.086771
-0.160128
-0.032225
-0.095619
-0.040040
0.020472
-0.049593
0.028293
0.016154
-0.001125
-0.092806
-0.009937
0.109932
0.023571
0.002190
0.078733
-0.044351
-0.029203
-0.016933
-0.096596
-0.028558
-0.158374
0.018615
-0.056056
-0.064229
-0.007101
-0.014349
0.005656
-0.075857
0.215677
-0.037824
-0.095832
0.075721
0.038499
-0.297288
0.315696
-0.432329
-0.192924
0.411808
0.322987
-0.066239
-0.024772
-0.115492
-0.246015
0.034621
0.007547
-0.008620
-0.021680
-0.069976
0.048962
-0.067925
-0.002153
0.005293
0.047749
-0.069390
0.005215
-0.166441
-0.230618
-0.016947
0.188283
-0.077518
0.019151
-0.026127
-0.012491
0.027647
-0.019208
-0.083661
-0.052280
0.128049
0.091249
-0.009742
-0.081129
0.083281
-0.102574
0.039528
0.077866
-0.100335
-0.047827
0.361951
-0.176650
-0.032411
0.003877
0.050307
-0.357903
0.045391
0.073172
0.074679
0.050685
-0.009528
-0.123342
0.009254
0.005618
0.080904
0.012347
0.015995
0.047195
-0.020188
-0.070782
0.097410
-0.136585
0.077419
-0.179113
0.000561
-0.176418
0.053518
-0.068597
-0.043830
-0.161679
0.001595
0.085230
0.005498
-0.077458
0.052419
-0.060873
-0.417229
0.243552
-0.328367
-0.171387
0.322858
0.401646
-0.048433
0.028126
-0.105372
-0.200550
0.027012
0.040470
0.014551
-0.006951
-0.045450
0.005899
-0.061316
-0.045822
0.060639
0.074436
0.018755
-0.030342
-0.231356
-0.200353
0.114701
0.080676
-0.030858
-0.036942
0.021146
-0.165360
0.056390
-0.007543
-0.128361
-0.044032
0.159625
0.073570
0.064542
-0.095100
-0.020882
-0.127613
-0.259153
-0.098620
-0.093460
-0.087909
0.197671
-0.036120
0.000971
-0.181524
0.026717
-0.353832
0.060226
-0.040433
0.016672
-0.064979
0.033747
-0.060218
-0.066051
-0.109640
0.070339
-0.130952
-0.166983
-0.067760
-0.161505
-0.119443
0.171252
0.058890
0.133629
-0.409918
0.099297
-0.353713
-0.021841
-0.034872
-0.099206
-0.027702
0.002181
0.097977
-0.001656
-0.168844
0.012617
-0.089013
-0.099279
0.081062
0.022442
-0.113251
0.038719
0.281855
-0.129255
0.057098
-0.142395
-0.174431
0.068423
0.027565
-0.027008
-0.124685
0.120738
-0.074907
-0.017183
-0.140167
-0.014287
-0.067278
-0.102853
-0.043411
-0.065762
-0.007411
0.062189
0.054078
-0.011252
-0.134745
-0.022699
-0.115954
-0.206788
-0.205557
-0.063117
-0.085629
-0.016797
0.091422
0.003832
-0.215694
0.098344
-0.203908
-0.197724
-0.049875
-0.110088
-0.176276
0.227007
0.065526
0.097846
-0.191382
0.030822
-0.297516
-0.065509
-0.145206
-0.173782
0.034864
0.011487
0.091109
0.123747
-0.238557
0.046787
-0.214662
-0.451648
-0.244906
-0.103181
-0.328024
-0.088900
0.164691
0.091668
-0.230342
0.035414
-0.203251
-0.145552
-0.198548
-0.188813
-0.057442
-0.002684
0.118637
0.017648
-0.280086
0.014981
-0.137124
-0.032498
0.141615
-0.037317
0.006300
-0.105092
0.186585
-0.079177
0.028360
-0.171354
-0.131844
-0.150484
-0.178317
-0.088018
-0.029586
0.083992
0.101673
-0.023393
-0.142751
0.005294
-0.100546
-0.020203
0.112135
-0.064349
0.074733
-0.026150
0.143163
-0.062701
0.194035
-0.125105
-0.036730
0.043979
-0.116018
-0.067684
-0.026590
0.006044
-0.024705
-0.142792
0.165664
-0.035723
-0.280344
0.019146
-0.174252
0.025956
-0.026074
-0.152961
-0.425772
-0.240870
0.193634
0.025412
-0.146193
-0.007193
-0.012632
-0.030519
0.142644
-0.123685
-0.061393
-0.031061
0.200952
-0.141411
-0.134308
0.028007
-0.055171
0.049426
0.084112
-0.142262
-0.316664
-0.204047
0.211690
-0.066610
-0.199208
0.093081
-0.072878
0.016860
0.059263
-0.103387
-0.369233
-0.161606
0.128482
0.013721
-0.216464
-0.028931
0.086503
0.083408
-0.011166
-0.056104
0.124235
-0.045236
0.099294
-0.220092
-0.021621
0.015509
-0.008824
-0.004224
-0.020562
-0.058231
0.043250
-0.059288
0.056294
-0.017736
-0.052836
-0.030851
0.089686
0.000903
0.155354
-0.075484
-0.236364
-0.163441
0.044273
-0.078121
-0.085159
-0.228819
-0.079529
0.087650
0.102551
-0.018695
-0.330385
-0.051976
0.034099
0.007312
-0.214688
-0.123433
-0.113877
0.026136
0.016522
0.048278
-0.048164
-0.029261
0.027704
-0.061363
-0.058712
-0.109940
-0.027923
-0.128315
-0.090403
-0.070530
-0.193408
-0.070803
0.294111
-0.122113
-0.393601
-0.113636
-0.069040
0.063302
0.043871
0.083689
-0.169476
-0.077109
-0.005995
-0.044401
-0.127541
-0.080789
-0.129390
0.090583
0.072846
-0.011791
-0.210498
-0.050861
-0.003117
-0.038299
-0.108547
-0.033764
0.155413
0.072080
-0.013485
-0.081408
0.184508
-0.120335
0.010971
-0.237556
-0.007906
0.009390
0.100203
-0.064180
0.079750
-0.097753
-0.093017
-0.057234
0.264833
-0.076348
-0.139849
-0.008735
-0.071340
0.055780
0.133923
-0.056805
-0.161470
-0.203865
0.022078
0.031118
-0.033871
0.025288
-0.045006
0.040975
-0.014081
-0.074742
-0.171448
-0.127492
0.066029
0.069807
0.102092
-0.050690
0.013344
-0.079169
0.049770
0.034586
-0.070166
0.005250
0.036594
-0.018385
0.014946
-0.257951
-0.037122
-0.114496
-0.065832
0.160648
-0.071426
0.187208
0.139672
-0.113421
-0.673957
-0.028786
-0.094937
-0.062840
0.040095
-0.044824
-0.126520
-0.056808
0.121916
0.034885
-0.058214
-0.018355
-0.037036
-0.026320
0.057870
-0.106235
-0.104000
-0.139844
0.100810
-0.005278
-0.022174
0.000504
0.199096
0.008503
0.026716
-0.215005
0.024250
0.031326
-0.103830
-0.074822
0.015321
-0.046506
0.002048
-0.058729
0.014561
0.065019
-0.086270
-0.034712
0.098176
-0.058751
-0.246721
-0.049238
-0.070563
0.118495
0.234982
-0.193601
-0.278052
-0.135584
0.090179
-0.019612
0.042836
0.004951
-0.082306
0.044822
0.032956
-0.037476
0.007333
-0.120913
0.045788
0.029930
0.065822
0.003433
-0.134170
0.056131
-0.057424
0.034312
0.011316
0.011876
-0.058700
0.117708
0.016011
-0.140910
0.007863
-0.260631
-0.287982
0.256189
0.045072
0.118397
0.417016
0.067925
-0.471583
-0.076969
-0.152196
0.040066
0.005811
0.001962
0.051898
-0.065734
0.177643
-0.021212
-0.030913
-0.057331
-0.092024
-0.006807
0.093836
-0.080004
-0.098650
-0.040074
0.117124
0.009150
0.082258
0.010460
-0.045700
0.018202
-0.052249
0.067854
-0.140122
0.155813
-0.203668
-0.066871
0.120635
-0.031859
0.039804
-0.071876
-0.023938
0.096954
-0.015027
-0.079180
0.240738
0.009491
-0.325351
-0.054060
-0.218038
0.142141
0.263582
-0.234892
-0.209856
-0.088925
0.089549
0.055169
0.038126
0.003989
-0.034065
-0.004812
-0.022254
-0.153862
-0.057398
0.032440
0.035943
-0.000734
0.032487
0.062822
-0.036024
0.011611
-0.038921
0.060602
0.025009
0.016929
0.019839
0.022605
-0.057224
-0.071953
-0.143363
-0.160241
-0.323713
0.362420
0.144158
-0.004886
0.319891
-0.000536
-0.461366
-0.038167
-0.051854
0.049615
-0.028486
-0.083156
-0.026128
-0.042158
0.073792
-0.028889
-0.082104
-0.029834
-0.020342
0.100803
-0.020386
-0.155567
-0.068576
-0.018138
0.002304
-0.055248
0.016463
-0.206152
-0.178194
-0.013627
-0.147537
0.287232
-0.084196
0.279423
-0.383455
-0.003623
0.117408
-0.050380
-0.063232
0.004138
-0.110062
0.168386
0.118808
-0.077864
0.272747
-0.056671
-0.239004
-0.166047
-0.263309
0.138351
0.280721
-0.247092
-0.127635
-0.265085
0.003755
0.075648
0.159417
0.000639
-0.060233
0.036464
-0.056608
-0.133144
-0.000051
-0.096876
0.031651
-0.005807
0.106312
-0.025343
-0.072414
-0.062488
-0.066497
0.133347
-0.022283
-0.015937
-0.082117
0.033244
0.111884
0.041205
0.049134
-0.010388
-0.314024
0.309403
0.178412
-0.069187
0.052810
-0.030818
-0.166401
-0.001761
0.004564
-0.027547
0.028542
-0.123187
0.093040
-0.001799
0.086292
-0.050676
0.020418
-0.011725
-0.068869
-0.028972
-0.015593
-0.231978
0.051822
-0.055831
0.119563
0.006126
0.030112
-0.069543
-0.029187
-0.274033
-0.355989
0.423192
-0.023511
0.357252
-0.614819
-0.076935
0.211071
-0.077941
0.005075
0.009374
-0.152078
0.143609
0.011561
-0.038896
0.125862
0.048190
-0.123923
-0.121145
-0.434048
0.072846
0.240654
-0.473770
-0.181622
-0.199397
0.053880
0.059706
0.409307
-0.031055
-0.051393
0.029978
-0.010504
-0.226739
-0.015959
-0.007313
0.021059
-0.017593
0.180249
-0.036231
-0.062862
0.074949
0.026805
0.117245
-0.115030
-0.114257
-0.179948
0.032491
0.230926
0.112703
-0.022291
0.078324
-0.206762
0.296156
-0.049958
-0.131294
-0.114329
0.112925
-0.060910
0.021259
-0.100622
0.000246
0.036657
-0.153183
0.031529
-0.157722
0.039879
0.000313
0.194597
0.087293
-0.010368
-0.028827
0.062983
-0.227603
0.112708
-0.063309
-0.037039
-0.037261
0.071521
-0.014618
-0.029959
-0.286707
-0.242260
0.644409
-0.288033
0.341488
-0.529510
-0.118702
-0.095998
0.031581
-0.027713
0.046001
-0.068298
0.008048
0.037726
-0.083877
0.076930
0.008322
-0.045378
-0.010217
-0.381444
-0.055574
0.091021
-0.445335
0.133577
-0.012551
-0.037586
0.155881
0.337687
0.035981
-0.040028
-0.006198
0.107424
-0.178378
-0.073310
-0.046142
-0.003165
0.001722
0.148065
0.012244
-0.097696
0.113871
0.157082
0.123805
-0.276963
-0.124658
0.002334
0.164076
0.074076
0.117315
-0.029900
0.128204
-0.041548
0.236027
-0.257241
-0.148014
-0.151723
0.068932
-0.021999
0.066596
-0.069781
0.059031
-0.016337
-0.152829
-0.031040
-0.108603
-0.045032
0.026172
0.165330
0.037611
0.047062
-0.066828
-0.007535
-0.136130
0.138729
-0.048641
0.074757
-0.054905
0.035466
-0.346231
0.217902
-0.180334
0.080368
0.789654
-0.511582
0.268175
-0.426180
-0.053880
-0.351801
0.147387
-0.061089
0.003351
0.030192
-0.008480
-0.053620
-0.172009
-0.013165
0.005715
0.032104
0.004657
-0.284595
-0.210373
-0.092531
-0.203087
0.349261
0.061424
-0.017408
0.114387
0.128989
0.108470
-0.054460
-0.167334
0.005914
-0.042869
0.026406
-0.027336
0.079398
-0.003799
-0.008211
0.047304
-0.183027
0.115159
0.135024
0.049965
-0.435023
-0.117413
-0.092056
0.116608
0.064240
0.134458
-0.033853
0.072834
-0.034620
0.129319
-0.187291
-0.214327
0.009494
0.071992
0.000787
0.104367
-0.110186
-0.030231
-0.025993
-0.098421
-0.019947
-0.114992
-0.035697
0.034497
0.015312
0.041882
-0.053947
-0.158247
0.017684
-0.050254
0.125910
-0.066792
0.051010
-0.009580
0.002956
-0.430004
0.151776
-0.123767
0.216770
0.611220
-0.411624
0.137132
-0.127151
0.002985
-0.266229
0.186765
-0.081089
-0.021452
-0.009676
0.023984
-0.093576
-0.207527
0.024500
-0.012932
0.057638
-0.133591
-0.198910
-0.264281
-0.243721
0.013451
0.462623
0.042218
0.025475
0.057235
-0.102234
0.012049
-0.076809
-0.052473
-0.022551
0.015581
-0.021643
0.023149
0.045519
0.003495
-0.006291
0.078028
-0.135874
0.160161
0.096676
0.103543
-0.477941
-0.151831
-0.044504
0.074453
0.056935
0.116666
-0.036082
0.007464
0.102699
0.063059
-0.280006
-0.205016
0.026796
0.081418
0.035494
0.009791
-0.076988
-0.004691
0.025262
-0.021511
0.056416
-0.014953
-0.124651
0.070569
-0.003652
0.055810
-0.001410
-0.102525
0.017150
-0.062754
0.065963
-0.028320
0.067801
0.050954
-0.086836
-0.387335
0.182823
-0.083728
0.151515
0.518612
-0.207120
-0.162575
0.141504
0.058606
-0.395961
0.114475
-0.050336
-0.020615
0.005907
0.025682
-0.001496
-0.084783
-0.004910
0.102551
0.045275
-0.135518
-0.202401
-0.297533
-0.348334
0.091458
0.371302
0.088739
-0.037465
0.100523
-0.112255
0.073541
-0.015806
-0.073711
0.039753
0.138703
-0.072589
-0.033746
0.040408
0.027343
0.003700
0.119950
-0.080449
0.112805
0.138638
0.212528
-0.425679
-0.177134
0.029217
0.145250
-0.061111
0.041465
0.020033
0.083646
0.037695
0.100312
-0.249376
0.017894
0.006617
0.090201
0.046995
0.063742
-0.016851
0.048510
-0.062843
-0.058394
-0.045652
0.013159
-0.034801
0.066700
0.067653
0.060623
0.040668
0.005899
-0.016436
-0.015875
0.113983
0.006203
0.005271
0.030114
-0.123018
-0.288435
0.179041
-0.088371
-0.002221
0.387896
0.081002
-0.178966
0.168524
-0.065960
-0.236131
0.011374
-0.070787
-0.004510
-0.038859
0.097204
-0.133293
-0.002463
0.074760
0.044275
0.000943
-0.165221
-0.198329
-0.208414
-0.229020
0.049599
0.288327
-0.165880
0.022749
0.063757
-0.129169
0.037473
-0.085885
-0.104854
-0.005576
0.037677
0.036039
-0.113045
0.054693
0.099448
-0.178242
0.083474
-0.115449
-0.089811
-0.217431
0.212880
-0.144950
-0.084482
-0.212302
0.220336
-0.158419
0.079383
0.032628
0.059281
0.059877
-0.000718
-0.134586
-0.017523
0.023247
0.088425
-0.097612
0.094866
-0.119925
-0.283585
-0.255887
-0.040289
0.024872
0.050930
-0.178548
0.060692
-0.103328
0.038195
-0.114363
-0.072338
-0.034584
0.053701
0.086863
-0.073819
0.049813
0.061612
-0.076981
-0.116917
0.135690
0.090154
0.023632
0.019115
-0.002033
-0.084069
0.086960
-0.134350
-0.114097
0.113884
-0.013337
-0.027280
0.058031
-0.010652
-0.061865
-0.083012
0.105733
0.075659
-0.085870
-0.159433
-0.080256
-0.125645
-0.182512
-0.041512
0.302056
-0.345479
-0.074269
-0.015696
-0.111295
-0.084709
-0.334833
-0.258388
-0.444535
0.023152
0.059984
-0.187036
-0.186722
0.045070
-0.178252
-0.233848
-0.175007
-0.168664
-0.132170
0.013347
0.093472
-0.045726
-0.113747
-0.036796
-0.282487
0.071874
-0.217748
-0.291335
-0.149554
0.029886
0.048026
-0.023340
-0.091800
0.042217
-0.059417
-0.294112
-0.295695
-0.208621
-0.485193
0.053136
0.183764
-0.061550
-0.162201
-0.088006
-0.208655
-0.020359
-0.253794
-0.239413
-0.268735
0.126171
0.045044
-0.045812
-0.096871
0.091950
-0.085200
0.001763
0.115064
-0.095495
-0.020539
-0.001143
0.141156
-0.002521
-0.029227
-0.071660
-0.026913
-0.012248
-0.258107
-0.139321
-0.160167
0.073719
0.061050
-0.091159
-0.096282
0.048943
-0.140820
-0.051366
0.144747
0.031002
0.009916
-0.108476
0.138149
-0.187526
0.147364
-0.252689
-0.202961
0.122785
-0.092246
-0.071424
-0.040865
-0.069576
-0.400801
-0.168143
0.162121
-0.096006
-0.340470
0.020940
-0.197167
-0.009490
0.094226
0.034564
-0.444029
-0.242824
0.029166
0.005450
-0.170044
-0.031673
0.057837
-0.058169
-0.089752
-0.153797
-0.143029
-0.045608
0.226513
-0.059131
-0.161443
0.081055
-0.082047
-0.054623
0.078674
-0.042906
-0.401909
-0.292582
0.065480
-0.093016
-0.077272
0.082135
-0.100384
-0.017329
0.044277
-0.057977
-0.471321
-0.274812
0.084623
-0.067584
-0.118018
-0.020955
0.193551
0.021915
0.106876
-0.042310
0.075806
-0.060108
0.054363
-0.204010
-0.021952
0.047262
-0.011956
0.008491
-0.067435
-0.021659
0.013456
-0.117443
0.124525
-0.104313
-0.086476
-0.037674
0.068269
0.086301
0.073956
-0.195111
-0.014840
-0.278540
0.152422
-0.138739
-0.120540
-0.097296
-0.071714
-0.075678
0.150026
-0.089392
-0.148066
-0.029673
0.088008
0.034471
-0.060839
-0.012520
-0.206751
0.057445
-0.069348
-0.012779
-0.031720
-0.084901
-0.023389
0.051850
0.094476
0.000680
-0.140322
0.078411
0.100017
-0.066449
-0.278428
-0.179389
0.007633
-0.128367
-0.121597
0.012605
-0.177551
0.079467
0.052541
-0.021335
-0.161099
-0.034343
0.026435
-0.062150
0.000857
-0.009763
-0.250673
0.045037
-0.058931
-0.115173
-0.090103
-0.080482
0.008184
-0.002146
-0.029469
0.012271
0.164742
0.098750
0.005796
-0.111027
0.114580
-0.158740
-0.040053
-0.211839
0.007970
-0.025902
0.072649
0.104954
0.075315
-0.060710
-0.049909
0.013008
0.138350
-0.115469
-0.127649
-0.040900
-0.017531
0.229569
0.209648
-0.191735
-0.061142
-0.253616
0.011724
-0.001310
0.045590
-0.019284
-0.043259
-0.022109
-0.005423
-0.148013
-0.071004
-0.049105
-0.000959
0.070613
0.081199
-0.034755
-0.020408
-0.086884
-0.134930
0.026619
0.084683
0.058653
0.024070
-0.004401
0.013444
-0.038161
0.000740
-0.209579
-0.277412
0.182907
0.152707
0.126029
-0.090665
0.216033
-0.132798
-0.044519
-0.000888
-0.031421
0.041661
-0.029199
0.017682
-0.075425
0.100671
0.093614
-0.055439
0.051726
-0.043756
0.018538
-0.082075
0.020256
0.055056
-0.083405
0.054044
0.047498
0.074823
0.032853
0.130503
0.026470
0.062928
-0.050570
0.000793
0.047374
-0.249321
-0.129158
0.071048
-0.110346
-0.012197
0.022742
-0.114953
-0.033467
0.017615
0.059006
0.001625
0.049728
-0.042074
-0.089215
-0.147370
0.195046
0.199231
-0.092521
-0.273837
-0.114349
-0.050191
0.027016
0.025380
0.005327
-0.017944
-0.005092
-0.017054
-0.053852
0.045444
-0.068671
-0.048756
0.077090
0.001290
-0.012928
-0.071860
-0.188698
-0.185427
0.086522
0.095625
0.054207
-0.065218
0.075056
0.040833
-0.142287
-0.159682
-0.214331
-0.427641
0.210128
0.234399
0.107890
0.018430
0.274264
0.011264
-0.006461
-0.064441
-0.084807
-0.034916
0.013021
0.090707
0.013277
0.131156
0.026948
-0.053041
0.013088
-0.018644
-0.043799
-0.050775
0.023527
0.070029
-0.058763
0.037491
-0.025293
-0.001836
-0.054600
-0.004822
-0.069432
0.107661
0.066962
-0.042148
0.194904
-0.330959
-0.056404
0.202173
-0.123784
-0.099014
-0.135149
-0.234168
0.130879
0.061182
-0.004112
0.109442
0.062570
-0.084534
-0.104400
-0.011151
0.123802
0.296515
-0.015345
-0.244978
-0.125821
0.084007
0.006088
0.050085
0.011927
-0.005545
-0.008346
-0.096180
0.088986
-0.013507
0.003112
0.058155
0.001534
-0.028000
0.010019
0.042694
-0.133250
-0.168732
0.107938
0.066278
0.028113
-0.117018
0.086023
0.137061
-0.033699
-0.291228
-0.303136
-0.514201
0.197111
0.208020
-0.016117
-0.045239
0.299035
0.077472
-0.004653
-0.023356
-0.052056
-0.106536
0.019878
0.054646
-0.038266
0.005683
-0.017335
0.079554
0.048540
0.065482
-0.053595
-0.072453
-0.034530
0.080456
0.003842
0.009173
0.023339
0.039052
0.005419
-0.005505
-0.267136
0.044027
0.192405
-0.006462
0.184282
-0.649427
-0.224194
0.395640
0.040352
-0.215626
-0.131767
-0.330513
0.126172
0.056338
-0.122630
0.056664
0.101414
0.017259
-0.088261
-0.234939
-0.041003
0.332057
-0.116179
-0.111787
-0.157116
-0.025720
-0.033435
0.197068
-0.019475
-0.068155
-0.127007
-0.000593
0.105440
0.052716
-0.062619
-0.032735
0.034104
0.088987
-0.054287
0.025350
-0.263901
-0.060765
0.174137
0.005403
-0.097376
-0.233407
0.068641
0.063552
-0.022894
-0.227697
-0.054697
-0.643043
0.175722
0.156778
-0.070662
-0.111399
0.313258
0.104061
0.029661
0.039733
-0.083752
-0.034668
-0.003720
0.021056
-0.101673
0.030285
0.048985
-0.032484
0.000953
-0.040313
-0.155671
0.065496
0.000495
0.059659
-0.073221
0.086259
-0.063314
0.064213
0.070078
-0.129350
-0.266736
0.084096
0.305660
-0.174707
0.256544
-0.423971
-0.394382
0.256547
-0.023819
-0.189890
-0.078229
-0.356901
0.109166
0.142890
-0.114140
0.042682
0.086550
0.046207
-0.227854
-0.186412
-0.106637
0.329315
-0.453511
0.068014
0.030364
-0.060587
0.014988
0.353037
0.047565
0.068501
-0.236146
0.050950
-0.054824
-0.033332
-0.032822
-0.023038
-0.050611
0.039407
0.005083
-0.040302
-0.130729
-0.004894
0.051476
-0.168035
-0.156404
0.062271
0.005301
0.066797
0.059211
-0.153490
-0.100195
-0.438019
0.073475
0.090842
-0.058125
-0.176684
0.305114
0.122910
-0.010452
0.067255
-0.082398
0.020944
-0.146799
-0.083006
-0.159536
0.044284
0.032559
0.010147
-0.037192
0.213431
-0.096440
0.051795
-0.055576
-0.019700
0.004412
0.061467
-0.030388
-0.051192
-0.061892
-0.142588
-0.100839
0.138722
0.429006
-0.304052
0.229823
-0.190428
-0.363106
0.062881
0.049171
-0.092957
-0.051019
-0.224104
0.009947
0.113751
-0.068063
-0.046098
0.156023
0.021494
-0.446860
-0.286627
-0.177558
0.251605
-0.514603
0.166061
0.161639
0.053326
0.099884
0.160061
0.059347
0.082187
-0.086183
0.123867
-0.089374
-0.143870
-0.047280
0.054987
0.003492
-0.027020
0.171012
-0.102421
0.117633
0.107719
0.131744
-0.376307
-0.216757
0.208767
0.136902
-0.120572
0.067626
-0.057663
-0.081884
-0.165684
0.214136
-0.105488
-0.178471
-0.058481
0.083831
0.106765
0.164582
-0.098506
-0.017199
0.020349
0.076061
-0.084932
-0.199974
0.173877
-0.024933
-0.015790
-0.001089
0.127515
-0.077905
0.118205
-0.086766
-0.134408
-0.082995
0.107559
-0.067461
0.027642
-0.041100
-0.212814
-0.014746
0.211584
0.439942
-0.822594
0.171329
-0.133351
0.007939
0.010134
0.113142
0.027318
0.000190
-0.106062
-0.011148
-0.095759
-0.121705
-0.034299
0.015021
0.007719
-0.303636
-0.405043
-0.169731
0.144275
-0.318190
0.345009
0.240650
0.010759
0.074193
0.112326
0.006405
-0.044552
0.001810
0.141888
0.043044
-0.193453
-0.155600
0.187516
0.003867
-0.053844
0.105913
-0.164799
0.142296
0.018935
0.013350
-0.439120
-0.293574
0.135408
0.109245
0.037038
0.244866
0.011843
0.029747
-0.025928
0.179766
-0.209634
-0.331236
0.040040
-0.083123
0.029568
0.079999
-0.068081
0.059064
0.023386
0.023374
-0.034538
-0.189016
0.054138
0.067548
-0.083870
0.018139
-0.077050
-0.121926
0.099112
-0.004903
-0.131462
-0.051256
0.164067
0.049134
-0.014494
-0.059003
-0.133929
0.087850
0.249987
0.459078
-0.991286
0.028674
0.102091
0.204241
-0.132254
0.231083
0.039996
-0.025148
0.074690
0.074778
-0.051023
-0.272096
0.127950
-0.077748
0.018783
-0.448297
-0.352137
-0.208176
-0.070545
-0.156884
0.398463
0.186734
-0.014073
0.210107
-0.079815
0.017804
-0.070168
-0.027891
0.074647
0.003624
-0.153236
-0.230395
0.120952
0.079601
-0.081263
0.081592
-0.116592
0.183373
0.088656
0.105041
-0.486694
-0.236572
-0.082840
0.113475
0.054754
0.216443
0.036533
0.084602
0.077700
0.120450
-0.375313
-0.273735
-0.002539
0.114982
0.000401
0.159699
-0.098745
0.084392
0.022006
-0.027388
-0.053243
-0.143701
0.053793
-0.004133
0.008394
0.008231
0.020704
-0.070128
0.128310
0.091609
-0.076038
-0.114040
0.143577
0.070671
-0.095902
-0.075852
0.062801
0.097120
0.110453
0.380070
-0.859824
-0.407627
0.135616
0.204002
-0.161139
0.126310
-0.027224
0.103271
0.054817
-0.033901
-0.118190
-0.196325
-0.024389
0.061025
0.068274
-0.332141
-0.103099
-0.244188
-0.347919
-0.035664
0.366319
0.067339
0.043632
0.073999
-0.147626
0.035205
-0.061561
0.028883
0.038211
0.001966
-0.240886
-0.202136
0.044168
0.105035
-0.054297
0.169527
-0.098107
0.195238
0.008993
-0.081357
-0.411339
-0.207814
-0.140360
0.334043
0.034120
0.154397
0.008683
0.045722
0.132059
0.007953
-0.471678
-0.209637
0.073987
0.050939
0.035132
0.121410
-0.094407
-0.006115
-0.001740
-0.013546
-0.096794
-0.094344
-0.118102
0.053113
0.038179
0.016078
-0.022964
-0.013334
0.065886
-0.022839
-0.127235
-0.093333
0.059805
0.116453
-0.078551
-0.132731
0.110527
0.017222
0.216347
0.204176
-0.542870
-0.204816
0.119194
0.079137
-0.105466
0.075265
-0.012846
0.024064
0.032662
0.075894
-0.291375
-0.078099
-0.036638
0.056086
0.017715
-0.145294
-0.087461
-0.272387
-0.456609
-0.152841
0.497927
-0.041497
-0.029126
0.086329
-0.307621
0.092127
-0.149835
0.027868
-0.025504
-0.112832
-0.006253
-0.223135
0.019152
0.126963
-0.061246
0.169703
-0.095128
-0.036367
-0.153004
-0.184303
-0.064490
-0.044546
-0.301097
0.180134
-0.065348
0.124518
0.041476
0.044782
0.063118
-0.058949
-0.389636
-0.155155
0.011040
0.040960
0.040490
0.014635
-0.212454
-0.147980
-0.300723
-0.086008
0.120217
-0.116533
-0.196459
0.037084
-0.142357
0.095381
-0.144513
-0.073115
0.009660
-0.033698
0.024388
-0.156199
-0.006324
0.053493
-0.129773
0.025992
0.191913
0.074165
0.207832
0.046594
-0.262450
-0.225853
0.168915
-0.045447
-0.142851
0.082550
0.015191
0.028134
0.070707
-0.049315
-0.142036
-0.148652
0.011963
0.055715
0.000501
-0.167166
0.102097
0.044590
-0.146965
-0.246648
0.366213
-0.159777
-0.078229
-0.044192
-0.235429
-0.117532
-0.220203
-0.039192
-0.353591
-0.075302
0.136212
-0.309031
-0.221972
0.077392
-0.143967
-0.209158
-0.117233
-0.095781
-0.286998
-0.157942
0.168403
-0.075202
-0.258015
0.023440
-0.184304
0.055585
-0.123139
-0.097923
-0.472200
-0.070625
-0.010148
-0.072455
-0.165798
0.138049
-0.099549
-0.234421
-0.300975
-0.144471
-0.288110
0.017834
0.224706
-0.340876
-0.123994
-0.074320
-0.291983
0.022160
-0.198917
-0.138213
-0.470707
-0.125377
0.252631
-0.173509
-0.138250
0.142446
-0.170363
0.021548
0.134914
0.002193
-0.029648
-0.081889
0.171990
-0.171443
0.067758
-0.112322
-0.052025
-0.042109
-0.086864
-0.148696
-0.250481
-0.033182
0.192720
-0.212859
-0.171354
0.046614
-0.028450
-0.025816
0.200590
-0.038421
-0.053856
-0.144196
0.082370
-0.063477
0.224052
-0.098160
-0.135255
-0.013033
-0.085895
-0.125308
-0.101696
-0.145440
-0.152122
-0.188924
0.219801
-0.043171
-0.332250
-0.040980
-0.105635
-0.177155
0.069763
-0.059873
-0.126924
-0.273110
0.156997
-0.045633
-0.077182
-0.037057
0.049479
-0.099667
-0.043298
-0.093032
-0.031262
0.028769
0.036093
-0.087288
-0.007270
-0.049070
-0.149273
-0.156865
-0.017764
-0.083269
-0.167387
-0.291924
0.140988
-0.035368
-0.161328
-0.057931
-0.203295
-0.071455
0.101841
-0.022680
-0.215139
-0.187659
0.193154
0.005519
-0.117313
0.031874
0.081175
-0.055623
-0.010689
-0.116236
0.141628
-0.096085
0.075967
-0.177226
-0.045054
0.047368
0.118202
0.040781
0.038016
-0.036553
0.071442
-0.009398
0.163230
-0.106066
-0.129120
-0.037070
0.134613
-0.005081
0.047307
-0.093723
-0.042098
-0.200313
0.161428
-0.051647
-0.030623
-0.133379
0.025057
-0.094640
-0.152515
-0.156096
-0.006483
-0.156281
0.115990
0.110625
-0.031388
-0.051500
-0.066074
-0.122787
-0.208257
0.020056
-0.008002
0.048425
-0.030147
0.011336
0.064308
-0.103016
-0.123917
-0.177261
-0.004486
-0.084996
-0.221213
-0.234885
-0.074400
-0.062351
0.155067
-0.010044
-0.113805
-0.029956
-0.093809
-0.075887
-0.079854
-0.087530
0.086220
0.071978
0.010857
0.038348
-0.158091
-0.015870
-0.083324
-0.024759
0.012570
0.004187
0.141125
0.012548
0.087637
0.018616
0.184466
0.063959
-0.012208
-0.077067
0.030582
-0.123095
-0.020744
-0.106126
-0.058904
-0.150991
0.128937
-0.099596
0.003436
-0.089032
0.030589
-0.005913
0.050773
-0.068651
-0.020954
-0.060732
0.108541
0.026005
0.048791
0.044384
-0.096653
-0.122102
-0.009949
-0.126634
-0.051233
0.062390
-0.118053
-0.062132
-0.121216
-0.039931
-0.000853
-0.045699
0.032427
0.089759
0.032428
0.078591
-0.025874
-0.142330
-0.198422
0.141197
0.108308
-0.004449
-0.126533
-0.028959
0.017706
-0.068371
-0.002959
-0.374208
-0.324928
-0.007143
0.115224
0.183192
-0.299716
0.318869
0.230494
-0.004277
-0.140965
-0.139839
-0.109529
0.093373
0.015966
0.036006
-0.001963
0.089813
0.056506
0.061669
-0.136430
-0.137652
-0.114022
0.060975
0.025793
-0.037448
0.110459
0.071785
0.092455
0.064149
0.192149
-0.030947
0.108325
-0.086981
0.091998
0.112973
-0.204148
-0.243618
-0.045221
-0.078617
0.057849
-0.226231
-0.227165
-0.089174
0.107025
0.130616
-0.119131
0.191759
0.066540
0.055138
0.037755
0.243886
0.269701
0.035352
-0.216926
-0.224105
0.185472
-0.161816
-0.174256
0.007969
-0.106580
-0.140211
-0.215907
0.146171
-0.056024
0.050048
0.025552
0.047273
-0.005484
-0.003096
-0.034538
-0.245381
-0.128297
0.181508
0.044018
0.158796
-0.113262
-0.017326
0.071801
0.073467
-0.174850
-0.527251
-0.448825
0.054975
0.151765
0.091560
-0.232457
0.282655
0.324856
0.021753
-0.138957
-0.077765
-0.113394
0.044310
0.101485
-0.003802
0.046109
0.057275
-0.003780
0.109598
-0.082567
-0.067851
-0.097301
0.093801
-0.017394
-0.019459
0.056901
0.032575
-0.075513
0.093409
0.118443
-0.042151
0.374477
-0.010804
-0.148885
0.177464
-0.273539
-0.340798
0.072511
0.012503
-0.049257
-0.281321
-0.327526
0.029633
0.039169
0.024242
-0.031714
0.098980
0.156007
0.004326
-0.104960
0.217099
0.294021
-0.028418
-0.115895
-0.235476
0.073219
-0.196749
-0.050961
0.042660
-0.023925
-0.104510
-0.178684
0.087401
-0.020401
-0.044847
-0.033541
-0.045355
0.026219
0.070928
-0.086088
-0.254376
-0.033217
0.131057
-0.021533
0.052000
-0.129908
0.038228
0.090715
-0.052208
-0.400283
-0.433549
-0.628190
0.156698
0.179487
0.055780
-0.300303
0.336073
0.287049
0.049282
0.008204
-0.157450
-0.195230
0.125829
0.080105
0.010896
-0.069416
0.019443
0.059492
-0.030235
-0.068275
-0.098280
-0.136853
0.144784
0.084909
0.070891
-0.014828
-0.034998
0.004480
0.300334
0.075420
-0.224644
0.389708
-0.059604
0.007538
0.166237
-0.457612
-0.510293
0.072786
0.039444
-0.360494
-0.132789
-0.375686
0.016551
0.021429
0.005401
-0.168788
0.254645
0.138219
-0.117367
-0.290753
0.154555
0.316014
-0.004316
-0.033450
-0.149940
-0.239888
-0.089962
0.028237
0.024159
-0.090139
-0.199281
-0.074675
0.211802
0.108846
-0.023887
-0.191548
-0.004945
0.117826
-0.135810
0.061944
-0.243910
0.016648
0.016987
0.028213
-0.024965
-0.297382
0.242696
0.161286
0.051803
-0.433236
-0.253448
-0.615680
0.226172
0.197571
-0.039337
-0.151963
0.372427
0.193464
-0.027916
0.009480
-0.131925
-0.095291
0.057919
0.105465
0.013691
-0.109893
0.097192
0.041778
0.015452
-0.009059
-0.105536
0.062482
0.113696
0.082425
0.043259
-0.072159
-0.020847
0.078829
0.027610
0.126382
-0.075335
0.340418
-0.019388
-0.049115
0.222013
-0.009545
-0.506375
-0.106656
-0.009168
-0.367228
-0.083108
-0.428857
0.107188
0.099262
-0.031749
-0.124330
0.166866
0.113222
-0.480080
-0.095787
0.147803
0.347640
-0.144040
0.077527
-0.077370
-0.462193
-0.131998
0.267737
-0.099853
0.136509
-0.246985
0.076610
0.019878
0.058731
-0.065783
-0.217687
-0.015986
0.086712
-0.051727
0.036025
-0.189613
-0.011454
-0.105830
-0.161675
-0.265278
0.156407
0.191889
0.093314
0.060752
-0.102491
-0.045472
-0.412170
0.270313
0.165678
0.003428
-0.155755
0.145359
-0.136281
-0.022496
0.165683
-0.166329
0.052937
-0.065359
-0.008854
-0.194675
0.087906
0.052108
0.039200
-0.170029
0.112828
-0.242962
0.097464
0.011705
0.070254
-0.013024
-0.073527
-0.042146
0.031242
0.263653
0.026020
0.008911
0.015224
0.221881
-0.331749
0.194724
0.384933
-0.631879
-0.104770
-0.087540
-0.015913
-0.142234
-0.187694
0.039350
0.198528
0.022302
-0.162696
0.135782
-0.101522
-0.628862
-0.419484
-0.071285
0.250590
-0.305583
0.092235
0.272032
-0.161177
0.057458
0.172384
-0.178117
0.117894
-0.202791
0.101419
-0.074327
-0.155777
-0.045133
0.073554
0.116510
0.044778
0.162071
-0.023723
0.032681
-0.138598
0.074583
-0.216684
-0.235911
0.241838
0.037339
-0.114586
-0.009898
0.032741
-0.046626
-0.216487
0.131822
0.005661
-0.113822
0.087581
0.043787
-0.196422
-0.027973
0.042737
-0.097346
-0.029675
0.099261
-0.119912
-0.247003
0.142065
0.041037
0.047459
-0.039386
0.111552
-0.163027
0.120208
-0.025905
-0.150407
-0.027615
0.099737
0.082918
0.097564
0.361587
-0.185791
0.170861
-0.053009
-0.074513
-0.689073
0.233601
0.332082
0.041526
-0.123365
-0.073077
0.030500
-0.106530
0.001276
-0.013248
0.053765
-0.134408
0.012926
0.060755
-0.025743
-0.384589
-0.690167
-0.247343
0.320202
-0.264363
0.189189
0.271077
0.029383
0.215411
0.010878
0.008497
-0.066951
-0.022138
0.147473
0.057557
-0.286982
-0.151602
0.189254
0.077085
0.015140
0.159644
-0.026970
0.274962
-0.172441
0.111085
-0.203137
-0.273540
0.122508
-0.083716
0.028909
-0.019012
0.029612
-0.013478
-0.058747
0.190239
-0.161779
-0.254380
0.091141
-0.074531
0.064124
0.045549
0.062052
0.009296
0.003696
0.112414
-0.043827
-0.145761
0.095713
-0.040837
-0.004550
0.017118
0.026687
-0.061257
0.066239
0.101325
-0.269112
-0.080402
0.155454
0.024375
0.028954
0.106416
-0.048366
0.368212
-0.096899
0.156339
-0.933015
-0.305175
0.096131
0.341444
-0.010591
0.019705
-0.005549
-0.007203
-0.030036
0.145594
-0.038158
-0.164119
0.054174
0.013752
0.051763
-0.425587
-0.286422
-0.225565
0.145608
-0.073441
0.136982
0.133649
-0.060211
0.280311
-0.069194
0.083553
0.018146
0.094826
-0.010029
0.022870
-0.342443
-0.162803
0.030192
0.111321
0.024425
0.093342
-0.038054
0.236160
-0.229505
-0.008924
-0.301978
-0.176406
-0.000216
0.061648
0.057871
0.095907
0.045221
0.137441
-0.041085
0.114270
-0.131688
-0.233722
-0.050405
0.014318
0.071770
0.152964
-0.030410
0.024732
-0.098119
-0.041774
-0.139929
-0.160677
0.062446
-0.007023
0.007142
0.006411
-0.011755
-0.051791
0.005437
0.111949
-0.280798
-0.171675
0.099592
0.129300
0.050236
0.196909
0.261411
0.275738
-0.029441
0.097826
-0.793536
-0.486078
0.067981
0.281048
-0.042137
0.008092
-0.019248
0.037067
0.008407
0.071460
-0.130452
-0.147408
0.004331
0.022746
0.013730
-0.292932
-0.036792
-0.130794
-0.135932
0.175344
0.123193
0.063872
-0.059915
0.254017
-0.291196
0.037403
-0.007757
0.013497
-0.037292
0.008630
-0.364476
-0.046984
-0.000839
0.110785
0.031484
0.166386
-0.237900
0.076185
-0.370114
-0.227471
-0.392465
0.098246
-0.049928
0.134466
0.045159
0.145449
0.001772
0.045304
-0.090748
0.017209
-0.379649
-0.050634
0.050649
-0.062699
0.034264
0.179850
-0.013162
-0.001019
-0.046916
-0.132483
-0.184113
0.035862
0.044022
0.045945
0.058341
0.048264
0.004593
-0.026296
0.035197
0.027712
-0.273525
-0.117791
0.027223
0.040995
0.069709
0.059419
0.125387
0.188112
0.090762
0.018545
-0.572233
-0.435449
0.038254
0.089749
-0.002347
0.082386
-0.046539
0.047528
-0.114867
0.099579
-0.221398
-0.013601
0.032786
-0.057564
0.061443
-0.092250
0.068559
0.165490
-0.234657
0.055671
0.200302
-0.014173
-0.049877
-0.074388
-0.322168
0.181184
-0.083434
0.005467
-0.296275
-0.026730
-0.260170
0.099022
-0.160354
0.036665
0.045918
0.292347
-0.201641
0.058379
-0.076383
-0.357050
-0.106859
0.063867
-0.292717
0.090246
-0.053170
0.124451
-0.054179
-0.048469
-0.046363
-0.004319
-0.427933
0.040991
-0.046851
0.085586
0.014005
0.168634
-0.120166
-0.092881
-0.216108
-0.221962
0.045732
0.098937
-0.298489
0.066033
-0.019872
0.018472
-0.076830
-0.007091
-0.187528
-0.045195
-0.179975
-0.015060
-0.062003
0.053041
0.012997
-0.045340
0.198248
0.251003
0.070007
-0.007133
-0.288648
-0.288294
0.055797
-0.035779
-0.002925
0.128764
-0.095964
-0.006745
-0.068130
-0.079268
-0.292305
0.130490
-0.052842
0.016580
0.030639
-0.132738
0.131760
0.267853
-0.035758
-0.098030
0.174338
-0.183647
0.117939
-0.338886
-0.220422
0.027751
-0.160399
0.116906
-0.137562
-0.176321
0.086453
-0.052316
-0.159856
-0.073099
-0.141688
-0.135679
-0.167425
0.256671
-0.225886
-0.316619
0.317870
-0.267074
-0.196827
0.047666
-0.136546
0.055304
-0.231075
0.028967
-0.282603
-0.085953
-0.121425
0.036754
-0.172042
0.032710
-0.070266
-0.306784
-0.035054
0.142626
-0.177015
-0.222718
0.379677
-0.403650
-0.103846
-0.098105
-0.143385
0.088103
-0.251573
0.081831
-0.249425
-0.253612
0.034826
-0.072034
-0.138895
-0.015514
-0.107322
0.022557
0.114542
0.059767
-0.049492
-0.126297
0.097738
0.010150
-0.034165
-0.079985
-0.057178
0.024488
-0.052079
0.100320
-0.152298
-0.101973
0.027433
0.020269
-0.120452
-0.020239
-0.044245
-0.040004
0.173530
0.027316
-0.033333
-0.026834
0.163683
-0.121459
0.173979
-0.149274
-0.094366
-0.088397
0.110127
-0.100399
-0.114197
-0.099874
-0.022661
-0.145071
0.173625
-0.044526
-0.289569
-0.087136
0.099132
-0.078735
-0.046422
0.032769
0.031681
-0.234842
0.145514
0.029413
-0.074376
-0.032050
-0.016641
-0.118435
0.012019
0.113308
0.029795
-0.050551
-0.001148
-0.038689
-0.037882
-0.105057
0.059672
-0.094664
-0.052959
-0.014649
-0.094670
-0.220634
0.202580
-0.022319
-0.019660
-0.065893
0.082870
-0.105384
-0.016968
0.004857
-0.050098
-0.224285
0.116176
0.006242
-0.073303
-0.103459
0.122741
0.002044
0.048327
-0.094538
0.140011
-0.070536
0.072933
-0.176717
-0.033053
-0.073742
0.076420
-0.008247
0.061666
-0.036075
0.074961
-0.091423
0.134205
-0.124757
-0.013505
-0.061739
0.214427
0.125085
0.117887
0.087072
-0.005925
-0.347179
0.115002
-0.200582
-0.159419
-0.109031
0.078536
-0.161798
-0.043573
0.026739
-0.013569
-0.095855
0.061791
-0.152923
0.121657
0.077047
-0.021253
-0.185529
-0.226563
0.044295
-0.122074
0.008167
0.011363
-0.059478
0.067677
-0.011728
0.101690
-0.084661
0.007867
-0.170648
-0.013865
-0.137929
-0.199273
-0.075703
0.247831
-0.023223
-0.066027
-0.115988
-0.209893
0.052311
0.013722
-0.019398
0.099294
-0.031638
0.048088
-0.039725
-0.024246
-0.187179
-0.138911
0.148901
-0.077879
-0.052378
0.164811
0.009389
-0.070647
0.056215
0.143564
0.077105
-0.053752
-0.167694
0.038728
-0.011992
0.055647
-0.099019
-0.044130
-0.063433
0.190005
-0.086717
0.023812
-0.027928
0.053504
-0.171833
-0.054575
-0.135638
0.099284
-0.040088
0.054219
0.413106
0.098281
-0.026467
-0.043540
-0.127310
0.043236
-0.119618
-0.190225
0.023720
-0.102085
-0.069550
-0.182926
0.091326
-0.078180
-0.037282
0.050199
-0.130486
-0.041418
0.193531
-0.026806
-0.129151
-0.250086
0.139762
0.023479
0.108113
-0.026530
-0.073404
0.103117
0.075596
0.029746
-0.464145
0.028066
-0.001427
-0.035518
0.283224
-0.313875
0.146043
0.388037
0.142335
-0.071044
-0.200589
-0.256830
0.140399
0.057726
0.088372
0.018896
0.030701
-0.000875
0.051297
-0.104241
-0.067173
-0.220093
0.144795
-0.017689
-0.067076
0.027169
-0.120535
0.009042
0.143489
0.125798
0.207204
-0.033594
-0.167924
-0.019044
0.047597
-0.036154
-0.192298
-0.015586
0.008191
0.054624
-0.310165
-0.074166
0.038152
0.003950
0.060755
-0.166108
0.093423
0.180402
0.013776
0.063940
0.474798
0.063177
0.036446
-0.176220
-0.202334
-0.001139
-0.012747
-0.309921
0.082693
-0.044668
-0.130797
-0.206865
0.190853
-0.063235
0.054143
-0.079515
-0.100786
0.037105
0.138446
-0.042596
-0.297311
-0.220683
0.132505
-0.021492
0.135094
-0.130714
0.030427
0.021461
0.107064
-0.117634
-0.601505
-0.026127
0.082414
0.013669
0.178988
-0.386242
0.036518
0.358909
-0.031452
-0.103539
-0.173026
-0.175842
0.161362
0.043963
0.033330
-0.071776
0.037511
-0.001173
0.086401
-0.020528
-0.073527
-0.203450
0.220390
-0.018827
0.100778
0.046178
-0.012827
-0.092246
0.329930
0.123457
-0.010577
0.225809
-0.010264
-0.187711
0.199522
0.161574
-0.282101
-0.197079
-0.023693
-0.067803
-0.350920
-0.146302
0.069739
0.076134
-0.050144
-0.166526
0.023790
0.131698
0.045010
-0.063694
0.341831
0.011618
-0.053858
-0.037164
-0.202169
0.139777
0.074084
-0.301508
0.061226
-0.228487
-0.053452
-0.132077
0.179348
0.019876
0.118051
0.013466
-0.050949
0.008980
0.084236
-0.244890
-0.257646
-0.072318
0.064929
0.006416
0.056382
0.017369
0.091712
0.046947
0.089053
-0.139801
-0.644708
-0.147750
0.038183
0.101449
0.068834
-0.222892
0.227820
0.294261
0.021411
-0.133454
-0.134891
-0.060987
0.015213
0.119137
0.117270
-0.109192
0.100129
0.049064
0.055573
-0.072804
-0.013547
-0.128947
0.214558
0.008498
0.020305
-0.014539
-0.066368
-0.050659
0.332103
0.171929
0.018866
0.225180
-0.128289
-0.241050
0.230390
0.432271
-0.545270
-0.256450
0.099648
-0.227354
-0.400383
-0.204588
0.067149
0.028776
-0.045308
-0.099034
0.093654
0.160628
-0.397330
-0.115800
0.239509
0.098031
-0.043302
-0.000958
-0.276023
-0.198068
0.042228
0.058925
0.059258
-0.191887
-0.091192
0.000516
0.123543
0.059986
0.122435
-0.282907
0.102866
0.054522
-0.032634
0.069850
-0.039173
0.043589
-0.081941
-0.044228
-0.070168
-0.207497
0.208090
-0.066248
0.200388
-0.384590
-0.410413
-0.376749
0.106226
0.132219
0.022022
-0.087617
0.123376
0.043101
-0.073253
0.043193
-0.119916
0.061566
0.088276
0.071825
-0.036350
-0.296545
0.095318
0.008643
-0.110588
0.024826
-0.053339
0.014494
0.167269
0.039975
-0.005271
-0.221556
0.002362
0.022504
0.154688
0.324805
-0.019910
0.168750
-0.368793
-0.123427
0.215010
0.707890
-0.550532
-0.404260
0.102698
-0.328689
-0.164973
-0.217865
0.109594
0.094541
0.031063
-0.164888
0.130990
-0.022024
-0.602323
-0.215711
0.209161
0.218607
-0.123402
0.156450
-0.060128
-0.298979
-0.106627
0.200990
-0.139652
0.098877
-0.072263
0.156621
0.051908
-0.030294
0.020966
-0.352699
0.098735
0.179475
-0.158581
0.159891
-0.090977
-0.008376
-0.021954
-0.192280
-0.104795
-0.075022
0.098191
0.072115
0.261005
0.103108
0.015788
-0.154460
0.079335
0.106060
0.054682
-0.225505
0.174948
-0.359452
-0.276985
0.185292
-0.165220
0.069794
-0.092996
-0.006975
0.000221
-0.084180
0.006593
0.162906
-0.187030
0.120410
-0.048773
0.088823
0.018364
-0.041584
0.078529
-0.248577
0.048720
0.184703
0.561037
0.021329
0.079579
-0.327787
-0.267936
-0.193715
0.186438
0.415841
-0.462595
-0.204365
0.077777
0.078845
-0.034515
-0.046968
0.011140
0.112066
0.020522
-0.401975
0.123431
-0.110985
-0.319845
-0.493027
0.084340
0.328299
-0.191453
0.088106
0.263661
-0.156372
-0.067550
0.067848
-0.280030
0.094604
-0.090889
0.037786
0.055484
-0.194100
0.070956
-0.030205
0.092195
0.039900
0.056498
0.122226
-0.051199
-0.063856
0.055889
-0.067532
0.000081
0.055933
-0.066358
0.086744
-0.057005
0.112098
-0.025997
-0.079132
-0.048222
0.107700
-0.060503
-0.025049
-0.019532
-0.123692
-0.077866
-0.008652
-0.005338
-0.009548
0.158756
-0.122414
0.018026
0.026746
-0.071371
0.081298
-0.210302
0.107752
-0.032054
0.035232
0.039478
-0.197976
0.022377
0.031922
0.108837
0.060882
0.429170
0.175247
0.371168
-0.484030
-0.211948
-0.334818
-0.086796
0.242966
-0.071537
-0.124463
-0.204197
0.104771
-0.053739
0.012879
-0.016289
0.012366
-0.011493
-0.113167
-0.022669
-0.031373
-0.314086
-0.611397
-0.019974
0.186534
-0.122769
-0.013684
0.077828
0.051216
0.201939
-0.128407
-0.087431
-0.070718
-0.052280
-0.041629
0.111279
-0.236419
-0.026790
0.074260
0.068323
0.087170
0.129689
-0.083171
0.025940
-0.068038
0.043746
0.025895
-0.032161
0.106178
-0.069959
0.002452
-0.106003
0.087756
-0.032503
-0.058040
0.150896
0.003709
-0.044592
0.103172
-0.055722
0.072988
0.129235
0.011406
-0.021443
-0.037672
0.014584
-0.077400
-0.138830
0.131441
-0.038549
-0.041763
-0.053255
-0.084779
0.029335
0.004278
0.148980
-0.221579
0.019948
0.071563
0.062798
0.078845
-0.015005
0.230979
0.242302
-0.403358
-0.070685
-0.512080
-0.211778
0.029097
-0.033002
0.257275
-0.134727
0.009355
-0.091187
0.070078
0.140661
-0.028300
-0.043147
0.062156
0.053322
-0.021787
-0.257416
-0.235754
-0.112111
0.129056
0.035400
-0.104911
0.093626
0.219870
0.274320
-0.366709
-0.020304
-0.224560
0.002538
-0.040378
0.102553
-0.169250
-0.053935
0.053546
-0.097531
0.081474
0.062882
0.072993
0.007149
-0.080660
-0.020012
-0.031083
0.084486
0.064408
-0.203995
0.141370
0.061480
-0.024916
0.027591
-0.057615
0.117066
-0.101229
-0.008210
0.088217
-0.041571
0.055302
0.114622
-0.043485
-0.046237
-0.142880
0.009597
-0.130357
-0.017633
0.063918
-0.067212
0.031571
0.072246
-0.167645
0.036777
-0.098707
0.160284
-0.163130
0.003422
0.046614
0.019720
0.058303
0.330053
0.179321
0.344001
-0.092254
-0.024148
-0.483923
-0.223341
0.090676
-0.110938
0.040538
-0.039111
-0.090186
0.051806
0.025982
0.034671
-0.082734
-0.050027
0.174731
-0.025599
0.059347
-0.168814
-0.175384
0.020278
0.037441
0.118520
0.011231
0.130464
0.233236
0.121669
-0.509633
0.059722
-0.074523
-0.017260
-0.110549
0.060777
-0.125357
0.029517
0.082305
-0.168463
0.122993
0.176086
-0.078480
-0.205248
-0.167216
0.019710
-0.025152
0.165378
-0.014516
-0.084453
0.147271
0.126409
-0.111917
-0.074298
-0.141269
0.004279
-0.074489
0.040933
0.107862
-0.093829
0.092414
0.117781
-0.116505
-0.115303
-0.209039
0.088623
-0.186523
0.093464
0.005815
-0.029612
0.007008
0.102404
-0.142344
-0.018233
-0.208285
0.110060
-0.154428
0.017130
0.096738
-0.030106
0.056083
0.165237
0.183724
0.233836
-0.133666
0.067312
-0.287811
-0.248681
0.064558
-0.077540
0.081230
0.061963
-0.064572
0.013492
-0.117583
0.049362
-0.117321
0.043780
0.037469
-0.152313
0.149308
-0.206824
0.056089
0.253461
0.049160
-0.008608
0.101739
-0.128559
0.117794
-0.073167
-0.487729
0.144200
-0.211055
0.035752
-0.178847
-0.128498
-0.245893
0.066235
-0.040973
-0.026690
-0.018203
0.182737
-0.190614
-0.048539
-0.069166
-0.112420
-0.194721
0.152429
-0.143661
0.097472
-0.205719
0.206433
-0.158532
-0.141124
-0.195612
0.047879
-0.191666
0.101063
-0.053830
-0.113472
0.067489
0.130560
-0.143298
-0.008867
-0.094286
-0.169171
-0.248240
0.136567
-0.115782
-0.028757
-0.162975
0.144175
-0.101214
0.080459
-0.154151
0.026021
-0.089884
0.049462
-0.042006
-0.049355
-0.018826
0.068068
0.116982
0.272142
-0.126378
0.001822
-0.193616
0.002253
0.002838
-0.077133
0.119023
0.057743
-0.049994
-0.139558
-0.203113
-0.001468
-0.121944
0.191121
-0.007823
-0.116102
0.026777
-0.117753
0.108710
0.285059
-0.038568
-0.196749
0.265152
-0.227577
-0.094072
-0.168157
-0.230878
0.045598
-0.128186
0.279414
-0.069719
-0.133652
-0.121507
-0.033711
-0.032395
-0.189243
-0.393469
-0.115603
-0.176073
0.229194
-0.063633
0.021316
-0.081039
-0.102981
-0.016238
0.077735
-0.114382
0.062964
-0.038041
0.034488
-0.140088
-0.117155
-0.224790
0.124729
-0.206809
0.009701
-0.212066
-0.107843
-0.011450
0.312547
-0.108818
-0.133643
0.082201
-0.231504
0.133462
-0.125462
-0.301423
0.040630
-0.116389
0.250391
-0.115582
-0.124999
-0.093367
0.013446
-0.155353
-0.070243
-0.263932
0.005524
0.174933
0.107441
0.039647
-0.104447
0.025448
0.036715
-0.026161
-0.128192
-0.104564
0.160162
-0.016083
0.079107
-0.099656
-0.116573
-0.088864
0.093955
-0.144199
-0.165093
-0.187112
-0.015708
0.230159
0.018482
0.083329
-0.101866
0.141273
-0.084731
0.053432
-0.132576
-0.049506
-0.096861
0.107903
0.011372
0.023760
0.070354
-0.134705
-0.169954
0.064489
-0.038266
-0.161054
-0.051922
-0.021766
0.128247
0.042816
0.024516
-0.010723
-0.291393
-0.041728
-0.021820
-0.046067
-0.014346
0.015995
-0.117150
0.084597
0.030646
0.071980
-0.045795
0.050584
-0.003831
-0.085096
-0.176878
0.081080
0.092516
0.060891
0.018089
-0.049301
-0.296746
0.003807
0.020537
0.014992
-0.165958
0.111437
0.136359
0.008010
0.037032
-0.091918
-0.227338
-0.014598
-0.054740
-0.077383
-0.053546
0.201428
0.056360
-0.010375
-0.155783
0.146982
-0.091040
0.021233
-0.221544
-0.107885
0.017455
0.033516
-0.093238
0.110202
-0.045480
0.025286
0.019919
0.022213
-0.086720
-0.091723
-0.027851
0.095364
0.198625
0.105194
-0.093131
0.090214
-0.258812
0.135086
-0.223665
-0.281768
-0.031855
-0.029747
0.016713
0.003757
0.055023
-0.081102
-0.282086
0.065155
-0.295826
-0.049435
0.089408
-0.068983
0.056654
-0.157295
0.066322
-0.090497
0.066044
-0.021102
-0.038692
-0.049677
-0.048219
0.014815
0.008638
0.076247
-0.135530
0.099871
-0.147436
-0.161774
-0.040617
0.088252
0.018388
-0.105636
0.042711
-0.039274
0.134356
-0.114917
-0.044977
0.038547
-0.043188
-0.001991
-0.002151
-0.106500
-0.002216
-0.026637
0.060242
-0.091254
0.010023
-0.011317
-0.055598
-0.109011
-0.061270
0.128333
0.047515
0.004814
-0.231257
0.114957
-0.020550
0.089186
-0.198996
-0.145685
-0.058390
0.133607
-0.011899
0.068336
-0.147428
0.067667
-0.229246
-0.198866
-0.004132
0.137613
-0.130243
-0.062733
0.213897
-0.063440
-0.085890
0.224362
-0.221267
0.026102
0.014916
-0.233283
0.068238
-0.188726
0.071912
-0.144001
0.033270
-0.083395
0.049760
0.049396
0.030978
-0.104049
0.153095
-0.112182
-0.080500
-0.255785
0.115166
-0.121688
0.203787
-0.106870
0.036036
0.056168
0.189500
-0.334052
-0.323623
0.090498
-0.145737
0.059468
0.155632
-0.417901
-0.332436
0.255924
0.056192
-0.070351
-0.132889
-0.238782
0.087292
-0.041300
0.170014
-0.052512
-0.085974
0.058168
0.028627
-0.050276
-0.023303
-0.154876
0.100088
-0.017129
0.067373
-0.019345
-0.015874
-0.061128
0.067088
0.177500
0.057720
-0.149817
-0.030594
-0.038181
0.025457
0.220582
-0.046714
-0.173338
0.046450
-0.109517
-0.169861
-0.002538
-0.103551
0.063219
0.109806
-0.169698
-0.249225
0.167706
-0.174519
-0.097577
0.128368
0.010685
0.044100
0.072977
-0.254633
0.208652
0.145327
-0.392063
0.065716
-0.086667
0.008071
-0.220132
0.201418
-0.107533
0.080479
-0.020848
-0.005755
-0.043669
0.146835
-0.002810
-0.110756
-0.141970
0.090209
-0.040740
0.141088
0.038449
-0.076084
0.011107
0.182677
-0.321977
-0.471805
0.063478
0.002309
0.009791
0.201543
-0.210968
-0.275224
0.247306
0.133819
-0.013126
-0.117880
-0.046215
0.128653
0.080697
0.124212
-0.002444
-0.009901
-0.013265
0.014880
-0.019302
-0.031278
-0.216735
0.166240
-0.065094
0.131085
0.029220
0.020774
-0.038124
0.214746
0.109612
0.183440
-0.137158
-0.221010
-0.249468
0.067408
0.701143
-0.094183
-0.443323
0.136427
-0.192683
-0.204898
0.008425
0.021072
0.033108
0.001194
-0.085640
-0.207109
0.107408
-0.284111
-0.047039
0.160994
-0.093028
0.000653
-0.031824
-0.416868
0.175147
0.095533
-0.090476
0.110311
-0.200526
0.080260
-0.227737
0.070893
-0.091591
0.178347
-0.019287
-0.072379
-0.007447
0.064771
-0.102138
0.081186
-0.139696
-0.194407
-0.013016
0.234044
0.039725
0.151608
-0.104495
0.143640
0.050317
-0.320547
-0.020051
0.014536
0.033079
0.123497
-0.209901
-0.037970
0.265531
0.047381
-0.185571
-0.088348
-0.076023
0.057248
0.104843
0.114133
-0.130439
0.073095
0.048627
0.077452
-0.164057
0.054319
-0.078493
0.106256
-0.098448
0.129090
-0.090268
0.001537
-0.008142
0.206806
0.120383
0.233099
-0.242473
-0.291742
-0.438907
0.159661
0.724046
-0.075943
-0.647500
0.060750
-0.073240
-0.218425
0.004112
-0.045247
-0.011165
0.006803
-0.182315
-0.089650
0.068961
-0.345237
-0.259979
0.206830
0.077464
-0.058984
0.150032
-0.450165
-0.199994
0.095572
0.341073
0.043758
-0.125184
0.132607
-0.070964
0.057441
-0.064032
0.210091
-0.228567
0.139066
0.035204
0.042217
-0.043231
0.048893
-0.078448
-0.072134
-0.161873
0.039616
-0.171707
0.289535
-0.138625
0.142565
-0.278734
-0.313082
-0.119114
-0.080949
0.035316
0.273002
-0.208890
0.204293
-0.063480
-0.069637
-0.025916
0.024830
0.054284
-0.045213
-0.018192
0.007501
-0.240434
0.050829
0.035826
-0.093668
0.002291
0.001912
-0.052873
0.015293
-0.132398
0.129567
-0.151554
0.045607
0.055549
0.219363
0.106046
0.288790
-0.487568
-0.405825
-0.262644
0.120377
0.539180
0.126279
-0.509188
0.206656
-0.210936
-0.097414
-0.005558
0.025266
0.032120
0.147780
-0.283527
0.053248
0.031665
-0.229383
-0.455360
0.168403
0.061340
0.010821
0.098266
-0.024921
-0.269428
-0.043163
0.242491
-0.203480
0.122342
0.066873
0.034141
-0.039447
-0.126329
0.180015
-0.302849
0.113788
-0.022937
-0.098590
0.116225
0.067454
-0.092095
0.063608
-0.010018
0.046394
-0.029862
0.077165
-0.011850
0.129695
0.033849
-0.092523
-0.023621
-0.092585
0.127255
0.151907
-0.231567
0.053364
-0.464008
-0.166875
0.182259
0.040181
0.018188
0.021269
-0.004476
0.026465
-0.175018
0.089898
-0.045903
-0.201964
0.096517
0.069233
0.046789
0.066830
-0.057482
0.126741
-0.226410
0.113226
-0.038049
0.523560
-0.110380
0.195986
-0.794306
-0.247377
-0.072845
0.252721
0.147610
-0.205198
0.049530
-0.134600
0.094256
-0.017015
0.022993
-0.062670
0.035189
0.189711
-0.246302
0.111588
-0.210482
-0.117084
-0.521561
0.101758
0.187033
-0.096412
0.010725
0.152436
-0.156599
-0.032992
0.052255
-0.160176
0.103381
0.066550
-0.066198
0.103052
-0.197591
0.102761
0.012376
-0.049978
0.000587
0.024420
-0.100851
0.002924
-0.007743
0.059648
-0.034044
0.030526
-0.018892
-0.061944
0.134883
-0.085292
0.122198
-0.009086
0.012005
-0.135665
0.069987
0.127419
-0.007494
0.120299
-0.164114
-0.144649
-0.032392
-0.083776
0.052396
0.091273
-0.043555
0.067042
0.009178
0.001896
0.116478
-0.024378
0.044701
0.122337
-0.105708
0.133368
-0.175540
0.070871
-0.048009
-0.044649
0.068294
0.224379
0.136531
0.204784
-0.279633
-0.325520
0.008440
0.080118
-0.064947
-0.236691
0.004848
-0.094858
0.057085
0.014822
0.004272
-0.019588
0.014961
0.103959
-0.089377
0.112396
-0.036117
-0.044904
-0.541606
0.055959
0.237218
-0.152969
-0.057405
0.102103
0.164460
0.206259
-0.302640
-0.023162
-0.243964
0.016087
-0.099222
0.131143
-0.100718
-0.008630
0.092022
-0.077056
0.020255
0.076422
-0.226629
-0.154126
0.069236
-0.079454
0.071045
0.114461
-0.006191
-0.077004
0.055591
-0.103668
0.018322
-0.171767
-0.053337
0.028746
0.062460
0.008934
0.040896
0.014928
0.000437
-0.015196
-0.250606
-0.105223
0.012888
-0.016549
0.033635
0.016057
0.155279
0.024677
-0.005608
0.011204
-0.106374
0.062275
-0.082091
0.137783
-0.105353
0.023749
0.047447
-0.130589
0.014787
0.053172
0.233307
0.144300
-0.306436
-0.104100
-0.049571
-0.046531
-0.027965
-0.353291
0.231999
-0.125486
-0.096328
-0.071612
-0.062278
0.085846
0.035233
-0.011575
0.041398
0.053352
-0.014731
-0.204871
-0.153173
0.131218
0.055241
0.177860
-0.261193
0.096057
0.140522
0.003434
-0.370361
0.047385
-0.229884
0.087555
-0.109157
0.098071
-0.062743
0.031399
0.146658
-0.163153
0.007831
0.019037
-0.215981
-0.175269
0.036150
-0.107992
0.006631
0.086511
0.147158
-0.067896
-0.045848
0.001652
-0.087513
-0.108442
-0.069676
0.014936
0.044235
0.095142
0.064615
-0.043944
-0.032541
0.003960
-0.229553
-0.032291
0.023781
0.073209
-0.029463
0.102473
0.135911
-0.007079
-0.089153
0.103281
-0.092845
0.084756
-0.117890
0.093502
-0.057571
0.095410
0.114042
-0.111317
0.055820
0.187858
0.135336
0.139724
-0.336696
0.053583
-0.027934
0.091463
0.191555
-0.420590
0.143372
-0.030925
-0.123789
-0.037092
-0.036152
0.050073
-0.027832
0.130521
0.139299
-0.053780
0.026193
-0.154456
-0.075036
0.260358
-0.092407
0.144564
-0.185215
-0.034963
0.006388
0.051664
-0.531304
0.087451
-0.218883
0.050316
-0.019849
-0.059512
-0.059322
0.007125
0.070894
-0.192169
0.027773
0.074678
-0.218352
-0.334082
0.135131
0.060002
0.048698
0.154008
0.063692
0.023191
0.014936
0.018415
-0.023614
-0.138962
0.009614
0.010321
0.064945
0.065731
0.047025
-0.168522
0.082539
0.081942
-0.217488
-0.080868
-0.014419
0.026342
-0.040695
0.043407
-0.017640
-0.043703
0.000878
0.014548
-0.191210
0.139135
-0.074370
0.027449
-0.067612
0.033697
-0.005469
-0.195446
-0.048708
0.180289
0.039814
-0.032904
-0.144483
0.032868
-0.070591
0.079502
0.111081
-0.425043
0.116194
0.065527
-0.113311
-0.082798
0.011204
0.044770
0.001609
0.023984
0.087460
-0.093684
-0.033967
-0.250023
0.027804
0.388116
-0.052100
-0.025458
-0.168042
-0.259811
-0.120628
0.020102
-0.355360
0.131556
-0.111296
0.047657
-0.029685
-0.062609
0.032112
0.040192
-0.017474
-0.066566
-0.142264
0.016624
-0.020390
-0.131104
0.023299
-0.166269
-0.097529
0.114559
-0.088402
-0.024847
-0.226771
0.104781
-0.018557
-0.297979
0.002209
-0.038990
-0.018110
0.066587
-0.012786
-0.164767
0.046460
0.105022
0.044506
-0.032557
0.000921
-0.057011
-0.073118
0.057317
-0.057713
0.005312
-0.291270
0.142639
-0.052547
0.149727
-0.048186
-0.063946
0.026018
0.055095
-0.058709
-0.156475
-0.079690
-0.051590
0.066976
0.111041
-0.115082
0.039489
-0.061328
0.167227
0.078418
-0.349439
-0.004496
0.068822
-0.091907
-0.128287
-0.069071
-0.101410
-0.032315
0.071804
-0.043953
-0.086762
0.018313
-0.316352
0.129323
0.363755
-0.049306
-0.119926
0.005333
-0.140679
0.000285
-0.148283
-0.253186
-0.094366
-0.070348
0.130994
-0.046237
-0.149714
-0.054546
0.059745
-0.247845
-0.055473
-0.335117
0.037101
-0.083980
0.241389
-0.133938
-0.074276
-0.240592
-0.238279
-0.076004
-0.136127
-0.142591
0.066315
0.019662
-0.019691
0.067461
-0.221878
-0.045564
0.035402
-0.150262
-0.010549
-0.399470
-0.179142
0.015941
0.322844
-0.242596
-0.131637
-0.133030
-0.170434
-0.303858
-0.157355
-0.161383
0.106222
0.009319
0.200079
0.068326
-0.140487
-0.019058
0.034566
-0.124697
-0.079661
-0.289463
0.125221
0.216620
0.011867
0.101951
-0.111051
0.180212
-0.042676
-0.052501
-0.162211
-0.109662
0.042437
0.028796
0.081873
0.037698
-0.158000
-0.078454
0.113269
-0.169715
0.001411
-0.276384
-0.071734
0.111657
-0.044903
0.079962
-0.009731
0.184081
-0.059377
0.067667
-0.156278
-0.138013
-0.070019
0.090485
-0.016839
0.117552
0.013741
-0.083511
-0.206487
-0.072414
-0.203007
-0.292248
-0.115873
-0.117829
0.163029
0.104187
0.004223
-0.079207
-0.173873
-0.073710
-0.112087
-0.104237
-0.018390
0.019736
-0.110405
-0.031027
-0.152908
0.020939
-0.040726
0.151215
-0.084594
-0.076889
-0.088191
-0.051883
0.031990
0.133412
0.001559
-0.129608
-0.220979
-0.138573
-0.079443
-0.081846
-0.113072
-0.137576
0.085498
0.132670
-0.069118
-0.111744
-0.239926
-0.145306
-0.179691
-0.058326
-0.103073
0.115018
0.041484
0.043311
-0.044905
0.099537
-0.026642
0.000438
-0.196335
-0.086451
-0.079928
0.067615
-0.005208
0.049943
-0.075583
0.036729
-0.034144
0.115179
-0.056179
-0.023106
-0.024934
-0.034177
-0.002785
0.063840
-0.007644
0.193950
-0.198447
0.076675
-0.126988
-0.296029
-0.017044
-0.321813
0.059475
-0.036572
-0.092444
0.062782
-0.281815
-0.031562
-0.096531
-0.099053
0.034296
-0.333630
0.025345
0.055234
-0.024831
-0.020558
-0.035818
-0.053536
-0.063605
-0.037777
0.011047
-0.217287
-0.091529
0.123621
-0.206702
0.084048
-0.083492
-0.116915
-0.126403
-0.193025
0.068065
-0.290208
0.023464
0.048396
-0.023716
0.043081
-0.018537
0.009697
-0.104793
-0.000735
0.033332
-0.212005
0.057120
-0.035379
-0.030663
-0.051100
-0.088352
-0.034754
-0.076294
-0.117252
0.082227
0.003888
0.013506
-0.120958
-0.079542
0.262187
-0.123492
0.063125
-0.114290
-0.072791
-0.025138
-0.104905
0.017910
0.183195
-0.076157
0.135615
-0.071064
-0.063465
-0.221548
-0.021850
-0.181410
-0.171610
-0.017605
0.136300
0.122097
0.322058
-0.222123
-0.064588
-0.089851
-0.164244
0.025911
-0.273504
0.023105
0.050823
-0.073507
0.098336
-0.012595
-0.026434
0.027985
-0.026625
0.077204
-0.130641
0.107643
-0.139528
0.016430
-0.134391
0.160727
-0.073609
-0.003047
0.053483
0.179767
-0.558253
0.043147
-0.004831
-0.261233
0.018406
0.023620
-0.150570
-0.118450
0.156918
0.045455
-0.163239
0.085682
-0.022139
0.086050
-0.079183
0.094165
-0.098398
-0.104179
0.001027
0.034894
-0.130362
0.073305
-0.022217
0.032841
-0.040365
0.015736
-0.091349
-0.060738
-0.086766
0.076848
0.214644
0.119821
-0.210177
0.008171
-0.070432
-0.059662
0.145954
-0.007129
-0.109426
0.067893
-0.366670
0.016812
0.147970
-0.118848
0.139400
-0.038618
-0.185331
-0.152233
0.010564
-0.322825
0.042510
0.053331
0.071621
-0.006900
0.326213
-0.279128
-0.099690
-0.049214
-0.216039
0.017356
-0.104116
0.052339
-0.095706
0.010782
-0.103025
0.051417
-0.048622
0.014913
0.000684
0.092348
-0.014018
0.103273
-0.179388
-0.067381
-0.178111
0.131934
-0.006494
0.063156
-0.111111
0.134099
-0.334483
-0.012096
-0.037112
-0.182147
-0.065140
0.134040
0.009256
-0.118709
0.144557
0.091433
-0.072289
0.010322
-0.124702
-0.033888
-0.011939
0.063121
-0.091281
-0.079788
0.049694
0.090795
-0.002696
0.074586
-0.146213
-0.054018
-0.057511
0.155813
-0.061360
0.067079
-0.075164
0.094438
0.119585
0.137054
-0.368442
-0.150194
-0.307550
0.009201
0.464651
0.241471
-0.454624
0.036890
-0.145359
-0.047908
0.057351
-0.062111
0.115964
0.037132
-0.032634
-0.129732
0.033368
-0.283409
-0.117616
-0.032794
0.131994
-0.119365
0.385009
-0.515477
-0.075109
-0.025971
0.083536
0.182612
-0.111937
0.153671
-0.195211
-0.172329
-0.143172
0.208867
-0.058121
0.108614
-0.023842
0.051751
-0.131176
0.133938
-0.263773
-0.135507
-0.214073
0.253583
-0.105439
0.210008
-0.174861
0.108193
-0.106225
-0.087588
-0.095969
-0.081247
-0.180692
0.223659
-0.054271
0.039264
0.059896
0.056313
-0.181311
-0.017462
-0.076877
-0.143459
-0.049375
0.198653
-0.161385
0.054574
0.069062
0.154490
-0.107517
0.141665
-0.086900
-0.034247
-0.145245
0.198107
-0.112645
0.129344
0.038341
0.155421
-0.190540
0.322707
-0.484331
0.020477
-0.439994
0.133422
0.577920
0.407783
-0.573360
0.135344
-0.107988
-0.077572
-0.069944
-0.108514
0.022126
0.091221
-0.194701
-0.082267
0.049434
-0.246167
-0.372669
-0.026916
0.226806
0.084736
0.296438
-0.408070
-0.253187
0.043051
0.317233
0.086474
-0.161319
0.177968
-0.093779
-0.144613
-0.178919
0.101757
-0.177205
0.161971
-0.140076
-0.060045
-0.101925
0.162618
-0.044369
-0.057040
-0.165272
0.063650
-0.006977
0.252062
-0.129667
0.118533
-0.057932
-0.145088
-0.146098
-0.042400
-0.132739
0.211087
-0.145585
0.166437
-0.147444
-0.081698
-0.047215
0.052121
0.002721
-0.005885
-0.029864
0.101345
-0.066490
0.033210
-0.099979
0.031065
-0.093565
0.207409
-0.084719
-0.043346
-0.102467
0.118154
-0.108916
0.038208
0.021380
0.319938
-0.094039
0.374847
-0.533205
-0.112187
-0.302596
0.181555
0.096395
0.362988
-0.351257
0.083709
-0.196512
0.005101
-0.033731
-0.102161
-0.003484
0.201724
-0.239810
0.075861
-0.083264
0.048765
-0.401284
0.111057
0.197235
0.104779
0.179364
-0.113307
-0.283197
-0.286146
0.228516
-0.068877
0.055635
0.127000
-0.080065
0.012689
-0.122403
0.082781
-0.005381
0.019948
-0.045409
-0.124078
0.069783
-0.017954
-0.098075
0.112632
0.017962
-0.104591
-0.025037
-0.073768
0.057546
-0.040422
-0.007411
-0.042155
-0.058254
-0.044480
-0.147839
0.134782
-0.056373
0.186690
-0.356870
-0.095777
0.084121
0.087597
-0.050660
0.097030
-0.017405
0.048564
0.008362
-0.073540
-0.013493
-0.120358
0.124315
0.173404
-0.039462
0.016261
-0.106582
0.083338
-0.009796
-0.017198
-0.054323
0.408429
0.000229
0.285217
-0.398093
-0.309974
-0.001187
-0.086368
0.056704
0.036668
0.110154
-0.134041
0.094931
0.008604
0.004032
-0.064517
-0.144451
0.095823
-0.123322
0.197807
-0.127482
0.001248
-0.508339
0.201329
0.224727
-0.131047
0.042332
0.039840
-0.217202
-0.145926
-0.074573
-0.061021
-0.068141
0.093979
-0.110708
0.007512
0.000834
0.100877
0.009661
-0.029537
0.042040
-0.112846
-0.087531
0.011593
0.077721
0.049225
0.040281
0.101500
-0.098350
0.043479
0.067509
-0.077503
0.072674
-0.110181
-0.045138
0.039916
-0.032573
0.099032
0.068438
0.205065
-0.165279
-0.044226
-0.111680
0.009313
-0.035913
0.085345
-0.042822
0.072430
0.034858
0.069655
0.003397
-0.092173
-0.071252
0.085299
-0.123594
0.010295
-0.011440
0.061788
-0.056464
-0.087201
-0.017200
0.137477
0.128274
0.155087
-0.461234
-0.228536
0.059294
-0.132791
0.111785
-0.253571
0.345170
-0.070964
0.111387
0.039466
0.036311
0.081540
-0.022744
0.066297
-0.014674
0.036302
-0.005364
-0.034457
-0.012459
0.124815
0.217686
-0.170059
-0.071465
0.005562
0.065631
0.111837
-0.375353
0.028387
-0.084137
0.090846
-0.037592
-0.044208
0.016107
0.170480
-0.023355
-0.144322
0.007104
-0.025983
-0.111691
-0.076261
0.127394
-0.111107
0.099768
0.025001
-0.029051
0.075232
0.098061
0.008103
-0.138368
-0.035923
0.040452
-0.022136
-0.038542
0.068004
-0.016319
0.166878
-0.060423
0.056987
-0.073087
-0.021299
0.063298
-0.015133
0.115243
0.042511
-0.035685
0.044317
-0.018038
0.063333
-0.056471
0.053635
-0.013797
0.044617
-0.010755
0.030815
-0.040765
-0.172423
-0.010772
0.220747
-0.049143
-0.200666
-0.070048
-0.222878
0.112656
0.109955
0.035892
-0.264722
0.196026
-0.094161
-0.187048
0.002195
0.039124
-0.000188
-0.052808
0.057335
0.048988
0.105812
-0.055350
-0.023586
0.075098
0.153169
-0.146046
0.009434
-0.219178
0.075424
0.146881
-0.009844
-0.449306
0.010502
-0.045561
0.013715
0.027151
-0.035928
0.024741
0.025737
0.066981
0.002387
-0.007225
0.064221
-0.288646
-0.248498
0.081672
0.009787
0.038259
0.012529
0.071555
0.099012
-0.142319
0.011258
0.008449
-0.094671
0.009604
-0.084917
0.051670
0.066947
-0.014385
0.024362
0.013536
-0.041257
-0.105402
-0.051591
-0.063852
-0.081576
0.010835
0.014807
0.056414
-0.014830
-0.081175
-0.073751
0.023684
0.104505
-0.006534
0.060212
-0.049993
0.087299
0.028512
-0.112010
0.048044
0.130080
-0.050017
-0.163257
0.089179
-0.069098
0.036528
0.242187
-0.009830
-0.321927
0.058315
0.056970
0.034188
-0.102920
0.018042
-0.051972
-0.032477
0.045357
0.063515
-0.008758
-0.084629
-0.098337
0.082183
0.317408
-0.124586
0.073163
-0.195389
-0.014779
0.041408
0.046502
-0.377504
-0.031228
0.040039
0.090695
0.001464
0.059701
0.071799
0.061272
-0.100229
-0.035266
-0.091775
0.065221
-0.173095
-0.200618
0.103781
-0.086803
0.024721
-0.058692
-0.054427
0.133746
-0.130557
0.021064
0.030518
-0.118853
-0.007053
-0.047007
0.059169
-0.024375
-0.042097
-0.021237
0.016353
0.052493
0.008527
0.047424
0.032561
-0.012518
0.047418
-0.018588
-0.087631
-0.029084
-0.074702
-0.007481
0.031850
-0.011213
-0.023057
0.055152
0.046426
0.030291
0.005757
-0.079905
-0.048720
0.013628
0.144955
-0.282703
-0.080288
-0.004938
0.145178
0.054773
0.139683
-0.167366
0.066345
0.023015
0.069466
0.003338
0.001457
-0.036204
0.106485
-0.020144
0.026316
-0.062361
-0.099875
-0.324634
0.020377
0.398148
-0.346368
-0.009671
-0.158466
-0.093588
-0.104366
-0.156245
-0.227803
0.040496
-0.059850
-0.054161
0.065540
-0.048541
0.033102
0.055944
-0.169325
-0.023922
-0.215087
-0.040038
0.136723
-0.126316
0.035029
-0.106175
-0.066937
0.129392
-0.093371
0.118303
-0.087659
0.068166
-0.016202
-0.084296
0.106309
-0.010641
0.053235
0.010607
-0.019166
0.071196
0.003332
0.001266
0.012213
0.037081
-0.065132
-0.139499
-0.014125
-0.019144
-0.117624
0.025119
-0.262300
0.052345
0.043899
-0.019338
-0.049568
-0.136761
0.065811
0.049945
-0.120498
0.016933
-0.208855
0.084122
0.132279
-0.063546
0.035380
0.008080
-0.069047
0.008493
0.050637
-0.340854
0.074699
0.009058
-0.031515
-0.079720
0.006438
-0.051743
0.021391
-0.022538
-0.120803
0.035400
-0.101205
-0.208369
0.145366
0.336116
-0.164126
-0.120625
0.013380
-0.312937
0.061155
-0.273009
-0.125140
-0.165101
0.005580
0.125901
-0.284737
-0.197983
-0.051224
-0.021584
-0.058551
-0.104057
-0.220259
-0.017203
0.022080
0.169102
-0.113039
-0.177560
-0.078270
-0.025766
-0.078669
-0.214037
-0.265116
0.048998
0.082746
-0.117109
0.004249
-0.160083
0.067912
0.087026
-0.075611
0.108339
-0.196152
-0.184908
-0.086297
0.352569
-0.266075
-0.169396
-0.131679
-0.097965
-0.016142
-0.332603
-0.167809
-0.008855
0.068660
-0.026588
-0.068908
-0.205069
0.022294
-0.030996
-0.059802
0.034313
-0.202724
-0.024773
0.171350
-0.004563
0.084487
-0.054694
0.092121
-0.011159
0.065941
-0.052021
-0.043908
0.021148
0.102189
0.063612
-0.130602
-0.219953
0.011208
0.028185
0.038946
0.050157
-0.197980
-0.051167
0.186900
0.071853
-0.063962
-0.003296
0.147221
-0.148930
0.098520
-0.120302
-0.058019
-0.016659
-0.095819
0.026722
-0.041544
0.069503
-0.015762
-0.204347
0.113438
-0.114990
-0.394004
0.012052
0.041387
0.147011
0.050051
0.078021
-0.096578
-0.172523
-0.188248
-0.197188
-0.123484
0.114528
0.023743
-0.156715
0.021273
-0.102860
-0.042564
-0.052194
0.054577
-0.071931
-0.099429
-0.067971
-0.090372
0.079089
0.156009
0.040000
-0.072236
-0.106005
-0.107457
-0.194883
-0.126547
-0.072906
-0.014679
0.133399
0.125406
-0.041860
-0.127264
-0.161251
-0.102269
-0.205753
-0.206174
0.027826
0.146087
-0.005538
-0.062644
-0.054125
0.102435
-0.117324
0.104526
-0.183013
0.005902
-0.005756
-0.000395
0.018736
0.000637
0.003576
0.084933
-0.064405
0.081167
-0.126329
-0.100123
-0.057295
0.215717
-0.000478
0.019956
-0.120652
0.068633
-0.205933
-0.040019
-0.153169
-0.138726
0.021458
-0.029971
0.066367
0.085791
-0.017628
-0.005693
-0.120353
-0.063200
-0.149305
-0.214399
0.100237
-0.081208
0.034697
0.052090
-0.119091
-0.093584
-0.042924
-0.078727
0.028706
-0.021889
-0.027503
0.019928
-0.137904
0.077979
-0.172650
0.090697
-0.105090
-0.133008
-0.297906
-0.170287
0.035778
-0.143294
-0.007459
0.054794
-0.120445
0.048430
-0.056460
-0.007213
0.038686
-0.103463
0.047210
-0.086504
0.075874
0.115498
-0.041844
-0.018411
-0.138139
-0.104395
0.010065
-0.032915
0.033757
0.129120
0.068047
-0.144192
-0.032031
0.108818
-0.085286
0.040471
-0.086295
-0.009087
-0.013188
0.224203
-0.029926
0.093020
-0.041095
0.125983
-0.145715
-0.150186
-0.251006
-0.033052
-0.196091
0.263930
-0.079549
0.098553
-0.055526
0.218889
-0.352107
-0.147962
-0.098242
-0.084217
-0.000611
0.069465
0.055560
0.085460
-0.129680
0.019852
0.006525
-0.140447
-0.023860
-0.068556
0.040228
0.039468
0.100240
0.073739
-0.035949
-0.028576
0.019934
-0.165075
0.141454
-0.080345
0.059676
-0.338193
-0.072726
0.019649
-0.172495
-0.012858
-0.009141
-0.107321
0.213373
0.099773
-0.023677
-0.103130
0.005088
-0.009508
-0.146738
0.082068
0.079771
-0.185533
-0.009378
0.026692
0.035361
0.044614
0.046572
0.075984
-0.049500
-0.045356
-0.026193
-0.093118
-0.019439
-0.071875
-0.076486
0.241375
0.036738
-0.145802
0.038047
0.083971
-0.167513
0.091119
-0.124312
-0.054763
0.023145
-0.134597
-0.070440
0.093276
-0.144803
0.054103
-0.162279
-0.196146
0.096473
0.075932
-0.305195
0.245461
-0.148964
0.064660
0.028428
0.309387
-0.262828
-0.118969
-0.063515
0.032006
0.011545
-0.008588
0.043116
0.039407
-0.109196
-0.008754
0.022953
-0.099181
0.052979
-0.087499
0.012794
-0.153150
0.094176
-0.190501
-0.067936
-0.010444
0.172498
-0.199930
0.068529
-0.136218
0.117928
-0.341092
-0.004094
-0.074680
-0.290361
-0.058579
0.276780
-0.266434
0.201834
0.088466
0.114260
-0.077206
0.026675
-0.049169
-0.083740
-0.049447
0.133215
-0.213186
-0.046841
0.044945
-0.014278
0.072992
0.027386
0.019997
-0.104802
-0.031599
0.027755
-0.043773
-0.028956
-0.116264
0.038093
0.050305
0.077128
-0.284497
0.133482
-0.042580
-0.260842
0.220030
0.047135
-0.113325
0.069210
-0.116899
-0.001850
0.016924
-0.196345
0.007457
0.028009
-0.261694
0.024450
0.085889
-0.173008
0.103531
-0.079225
0.171580
0.012243
0.198095
-0.271825
-0.184576
-0.135459
0.065526
0.105447
0.013434
0.086448
-0.118789
-0.173369
-0.081853
0.194026
-0.202163
-0.016012
-0.164546
0.160862
-0.087238
0.077897
-0.142435
-0.106008
-0.043588
0.208630
-0.133926
0.005946
-0.210346
0.122823
-0.153882
0.012616
-0.107908
-0.231388
-0.142136
0.214409
-0.038875
0.267914
-0.209063
0.196406
-0.027182
0.123200
-0.147107
-0.074531
-0.017682
0.171877
-0.183928
-0.064518
-0.138190
0.073516
0.018604
0.141119
-0.026200
-0.057855
-0.037828
0.148944
-0.105649
-0.011110
-0.130362
0.035175
-0.048614
0.262723
-0.410879
0.152788
-0.294267
-0.279616
0.228280
0.364297
-0.245387
0.130274
-0.010699
-0.045588
0.065518
-0.177898
-0.015666
0.073202
-0.131859
0.078759
-0.051688
-0.145794
-0.047292
0.046630
0.186662
-0.153757
0.262464
-0.165120
-0.219963
-0.069004
0.159574
0.181047
-0.031320
0.096596
-0.116092
-0.184123
0.001877
0.229376
-0.077168
0.115494
-0.235048
0.074509
-0.027525
0.022625
-0.170979
-0.018903
-0.114306
0.144312
-0.021403
0.135331
-0.181003
0.139825
-0.031019
-0.072061
-0.191343
-0.102093
-0.150086
0.177987
-0.074034
0.161472
-0.163221
0.088908
-0.073466
0.066819
-0.056583
-0.004354
-0.026694
0.148119
-0.096652
-0.006407
-0.155394
0.075521
0.015071
0.165427
-0.133292
-0.083159
0.052598
0.097341
-0.042655
-0.105470
-0.199078
-0.089937
0.029502
0.099491
-0.414952
0.045144
-0.187896
-0.356029
0.203148
0.273348
0.013482
0.174771
0.040115
0.002127
-0.104905
-0.005675
0.028372
0.203583
-0.131008
0.132248
-0.181738
0.052016
-0.191815
0.076721
0.235517
-0.269371
0.207839
-0.028378
-0.311550
-0.140405
0.095667
0.013399
0.003633
0.106655
-0.138720
-0.100258
0.021851
0.107650
-0.080042
0.050042
-0.119464
-0.251710
0.037409
-0.068470
0.050385
0.055792
-0.096593
0.061682
0.004667
0.138404
0.033731
0.086238
-0.086226
-0.113454
-0.254504
-0.070780
-0.145933
0.200599
0.076839
0.134759
-0.094934
-0.015285
-0.013860
0.043794
-0.021746
0.068314
-0.095539
0.115003
-0.006505
0.067609
-0.048558
0.069558
0.001410
0.079204
0.000191
-0.060748
0.091202
0.084766
-0.082093
-0.011108
-0.116914
0.084011
0.007725
-0.022095
-0.466478
0.109518
0.083634
-0.488684
0.235416
0.076396
0.160603
0.037810
-0.003830
-0.099371
-0.144491
-0.079286
0.035354
0.134976
-0.016679
0.156870
-0.047504
-0.002705
-0.298898
0.194353
0.120936
-0.363880
0.084463
0.015814
-0.470979
0.024123
-0.111378
0.007138
-0.056439
0.088084
0.061205
0.032975
0.027660
0.165478
-0.038052
-0.018880
-0.092202
-0.045198
-0.220780
0.109472
0.068611
0.030173
0.022386
-0.101904
-0.085889
0.081519
-0.041848
-0.060289
-0.083386
-0.001219
0.002148
0.003477
-0.109664
0.003433
-0.026012
0.199140
-0.020872
-0.047078
-0.153936
0.060392
0.105299
-0.010846
-0.022509
0.048993
-0.099620
0.010432
-0.033818
0.020620
-0.074489
0.098489
-0.002231
-0.037843
0.003362
0.114085
-0.103409
-0.064437
-0.167749
0.106938
-0.391397
-0.221656
-0.103606
0.014819
0.141140
-0.336689
0.149596
0.071362
0.140885
-0.034246
-0.098714
0.043013
-0.000693
-0.018739
-0.011031
-0.011331
-0.036341
0.084215
-0.117092
0.038915
-0.023758
0.249369
0.093906
-0.373311
0.035529
0.069692
-0.202494
0.022567
-0.290442
-0.063956
0.107481
0.033380
0.021328
-0.073012
0.028763
0.032960
-0.111280
0.059021
-0.110457
-0.086381
-0.177575
-0.077939
0.174788
0.002926
0.063024
-0.069888
-0.018014
0.082430
-0.043975
-0.084604
-0.022376
-0.017607
0.078408
-0.026554
-0.000175
0.107505
-0.131575
0.137509
-0.044073
-0.101003
0.081266
0.104698
0.038598
0.004523
-0.044943
0.068450
-0.117895
0.055041
-0.089036
-0.060283
0.020572
0.127793
0.067583
-0.027412
0.043614
0.021253
-0.174297
-0.023321
-0.125518
0.150649
-0.253446
-0.287069
0.159524
-0.038757
0.125366
0.015733
0.038011
0.006903
-0.010768
-0.160270
0.011390
0.064437
0.054919
0.000425
0.034936
0.042176
-0.087815
0.097016
-0.076263
-0.075160
0.144593
0.366091
-0.004796
-0.241399
-0.107922
0.040537
-0.175614
-0.077524
-0.440829
-0.065194
0.018636
-0.038695
-0.025066
-0.052176
-0.012856
0.055598
-0.152385
0.004408
0.042667
-0.075386
-0.138916
-0.054384
0.016411
-0.035750
-0.002084
-0.065963
-0.167877
0.079226
-0.067921
-0.059879
0.173501
0.034524
0.057315
-0.079397
0.061239
0.082485
-0.067672
0.089895
-0.059174
-0.015657
-0.013326
0.025842
0.026546
0.005566
0.022850
-0.086647
-0.016443
-0.048116
0.038142
-0.059487
0.043735
-0.008526
0.026954
-0.085102
0.001240
0.045730
-0.123151
0.006825
-0.039592
0.110237
-0.038687
-0.303852
0.064917
-0.161177
0.153736
0.042357
-0.025272
-0.005881
-0.020886
-0.119447
0.107096
0.004496
0.017579
-0.016700
-0.040244
-0.041994
-0.109837
0.032565
0.044420
-0.007187
0.147387
0.441712
-0.247018
-0.077677
-0.111221
0.075946
-0.200886
-0.100845
-0.315587
0.006253
0.042022
-0.018218
0.009873
-0.055276
0.052564
-0.005341
-0.246246
0.073051
-0.057174
-0.004822
-0.061604
0.036951
-0.039823
-0.117491
0.042403
-0.097241
-0.214793
0.084775
-0.157961
-0.009096
0.058526
-0.019638
0.014197
-0.019933
0.086290
-0.046835
-0.079248
0.043724
0.004373
0.051021
0.055610
0.040098
0.009276
-0.046862
0.111350
0.021279
-0.234200
-0.001988
-0.142209
0.011174
-0.018305
-0.009551
0.075520
-0.074570
0.019951
0.029182
-0.217022
0.006993
-0.057149
-0.075171
0.028097
-0.176891
0.082851
-0.055600
0.114193
-0.111720
0.118266
-0.085954
0.072484
-0.003601
0.004362
0.114505
0.035071
-0.061354
0.022350
-0.012472
-0.163796
0.038371
-0.049105
-0.246469
-0.055384
0.422724
-0.211778
-0.049960
-0.037902
0.010185
-0.101258
-0.307303
-0.048419
-0.069509
0.065542
-0.104840
0.024878
-0.185481
0.119519
-0.030522
-0.309929
0.078952
-0.113431
-0.115939
0.132491
-0.052295
-0.096082
-0.189472
0.038756
-0.061858
-0.173002
-0.021455
0.011419
-0.033058
0.033968
-0.127568
0.081100
-0.122842
0.078934
-0.018390
-0.238337
0.095688
-0.064586
-0.122155
0.107060
-0.017383
-0.169306
-0.169825
-0.014232
-0.020583
-0.230314
0.050532
-0.000687
-0.056736
0.079363
-0.018743
-0.060551
-0.086710
0.060848
-0.047503
-0.291030
0.014611
-0.047091
-0.024120
0.080198
-0.018132
0.018774
-0.065573
0.154114
-0.074536
-0.003368
-0.084362
-0.044362
0.038378
0.015902
-0.014469
0.009260
-0.141787
0.082758
0.022114
-0.330800
0.090822
-0.051649
-0.036372
0.083603
0.286147
-0.158270
-0.172973
0.032107
-0.167628
-0.023853
-0.259093
0.078228
-0.203961
0.149971
0.068978
-0.183575
-0.232990
0.034819
-0.093984
-0.063828
-0.146514
0.054429
-0.010323
-0.040563
0.171195
-0.196275
-0.141845
-0.088237
-0.049634
-0.006695
-0.041278
-0.283695
-0.089739
0.188199
-0.079688
-0.028169
-0.194728
0.048599
0.001878
-0.159622
-0.021143
-0.016363
-0.089470
0.138564
0.298942
-0.374097
-0.288589
-0.258711
0.013714
0.061799
-0.321593
-0.153767
-0.066042
0.170655
-0.006953
-0.056191
-0.130907
0.071722
-0.049836
-0.023138
0.025035
0.009638
-0.104523
0.131183
-0.055583
-0.007818
-0.153019
0.068083
-0.066635
0.062675
-0.132238
0.008025
-0.065808
0.143584
0.020456
-0.137285
-0.236837
0.127204
-0.066088
-0.024767
-0.063096
0.001022
-0.033184
0.191668
0.078960
0.050018
-0.135665
0.189483
-0.046642
0.034258
-0.205923
-0.012616
-0.026913
0.051567
0.142732
-0.061982
-0.011129
-0.021927
-0.092380
-0.290141
-0.193135
-0.193363
0.049448
0.020153
0.107453
0.084665
0.009947
-0.095187
-0.123066
-0.342669
-0.194251
-0.159338
0.055779
0.069230
-0.082332
0.037600
0.036214
-0.011629
-0.038714
-0.000380
-0.033634
0.014982
-0.004932
0.053528
0.141933
-0.054350
-0.015221
0.007437
-0.111471
-0.332842
-0.173118
-0.116844
-0.037570
-0.053344
0.135546
0.002311
-0.022260
-0.117487
-0.122835
-0.348797
-0.179456
-0.118406
